<?xml version="1.0"?>
<opencv_storage>
<opencv_ml_boost>
  <format>3</format>
  <is_classifier>1</is_classifier>
  <var_all>6</var_all>
  <var_count>5</var_count>
  <ord_var_count>4</ord_var_count>
  <cat_var_count>2</cat_var_count>
  <training_params>
    <boosting_type>GentleAdaboost</boosting_type>
    <use_surrogates>0</use_surrogates>
    <max_categories>10</max_categories>
    <regression_accuracy>9.9999997764825821e-03</regression_accuracy>
    <max_depth>8</max_depth>
    <min_sample_count>10</min_sample_count>
    <cross_validation_folds>0</cross_validation_folds>
    <weight_trimming_rate>0.</weight_trimming_rate></training_params>
  <global_var_idx>1</global_var_idx>
  <var_idx>
    0 1 2 3 4</var_idx>
  <var_type>
    0 0 0 0 1 1</var_type>
  <cat_ofs>
    0 0 0 0 0 0 0 0 0 1</cat_ofs>
  <cat_map>
    0</cat_map>
  <class_labels>
    0 1</class_labels>
  <missing_subst>
    0. 0. 0. 0. -1. 0.</missing_subst>
  <ntrees>70</ntrees>
  <trees>
    <_>
      <nodes>
        <_>
          <depth>0</depth>
          <value>-6.2646891043922859e-01</value>
          <splits>
            <_><var>1</var>
              <quality>4.7649717330932617e-01</quality>
              <le>7.6296001672744751e-02</le></_></splits></_>
        <_>
          <depth>1</depth>
          <value>1.3012477718359861e-01</value>
          <splits>
            <_><var>0</var>
              <quality>4.4361766427755356e-02</quality>
              <le>1.1337025165557861e+00</le></_></splits></_>
        <_>
          <depth>2</depth>
          <value>-3.8834951456310618e-01</value>
          <splits>
            <_><var>1</var>
              <quality>1.6172753646969795e-02</quality>
              <le>6.0279499739408493e-02</le></_></splits></_>
        <_>
          <depth>3</depth>
          <value>3.3333333333333304e-01</value>
          <splits>
            <_><var>1</var>
              <quality>2.3734488058835268e-03</quality>
              <le>4.9966000020503998e-02</le></_></splits></_>
        <_>
          <depth>4</depth>
          <value>1.</value></_>
        <_>
          <depth>4</depth>
          <value>1.1475409836065553e-01</value>
          <splits>
            <_><var>1</var>
              <quality>9.6001056954264641e-04</quality>
              <le>5.9588499367237091e-02</le></_></splits></_>
        <_>
          <depth>5</depth>
          <value>-8.6956521739130405e-02</value>
          <splits>
            <_><var>1</var>
              <quality>5.5415206588804722e-04</quality>
              <le>5.6326001882553101e-02</le></_></splits></_>
        <_>
          <depth>6</depth>
          <value>1.9999999999999982e-01</value>
          <splits>
            <_><var>0</var>
              <quality>5.2011676598340273e-04</quality>
              <le>7.1341848373413086e-01</le></_></splits></_>
        <_>
          <depth>7</depth>
          <value>7.5000000000000000e-01</value></_>
        <_>
          <depth>7</depth>
          <value>-5.8823529411764802e-02</value>
          <splits>
            <_><var>0</var>
              <quality>3.4227038850076497e-04</quality>
              <le>9.1946446895599365e-01</le></_></splits></_>
        <_>
          <depth>8</depth>
          <value>-5.0000000000000011e-01</value></_>
        <_>
          <depth>8</depth>
          <value>3.3333333333333326e-01</value></_>
        <_>
          <depth>6</depth>
          <value>-4.2857142857142849e-01</value>
          <splits>
            <_><var>1</var>
              <quality>7.4054865399375558e-04</quality>
              <le>5.8575503528118134e-02</le></_></splits></_>
        <_>
          <depth>7</depth>
          <value>-8.0000000000000004e-01</value></_>
        <_>
          <depth>7</depth>
          <value>-9.0909090909090967e-02</value>
          <splits>
            <_><var>1</var>
              <quality>5.7045067660510540e-04</quality>
              <le>5.8760501444339752e-02</le></_></splits></_>
        <_>
          <depth>8</depth>
          <value>1.</value></_>
        <_>
          <depth>8</depth>
          <value>-5.0000000000000011e-01</value></_>
        <_>
          <depth>5</depth>
          <value>7.3333333333333339e-01</value>
          <splits>
            <_><var>1</var>
              <quality>1.2549913953989744e-03</quality>
              <le>6.0035999864339828e-02</le></_></splits></_>
        <_>
          <depth>6</depth>
          <value>1.</value></_>
        <_>
          <depth>6</depth>
          <value>0.</value></_>
        <_>
          <depth>3</depth>
          <value>-4.9720670391061644e-01</value>
          <splits>
            <_><var>0</var>
              <quality>1.8067255616188049e-02</quality>
              <le>9.5439648628234863e-01</le></_></splits></_>
        <_>
          <depth>4</depth>
          <value>-6.2500000000000189e-01</value>
          <splits>
            <_><var>2</var>
              <quality>1.8539646640419960e-02</quality>
              <le>10.</le></_></splits></_>
        <_>
          <depth>5</depth>
          <value>-6.4285714285714479e-01</value>
          <splits>
            <_><var>1</var>
              <quality>1.9168775528669357e-02</quality>
              <le>7.3950000107288361e-02</le></_></splits></_>
        <_>
          <depth>6</depth>
          <value>-5.7475083056478682e-01</value>
          <splits>
            <_><var>1</var>
              <quality>1.1920162476599216e-02</quality>
              <le>7.3781996965408325e-02</le></_></splits></_>
        <_>
          <depth>7</depth>
          <value>-5.9322033898305360e-01</value>
          <splits>
            <_><var>2</var>
              <quality>1.2163479812443256e-02</quality>
              <le>3.5000000000000000e+00</le></_></splits></_>
        <_>
          <depth>8</depth>
          <value>-5.6989247311828262e-01</value></_>
        <_>
          <depth>8</depth>
          <value>-1.</value></_>
        <_>
          <depth>7</depth>
          <value>3.3333333333333331e-01</value></_>
        <_>
          <depth>6</depth>
          <value>-8.6813186813186805e-01</value>
          <splits>
            <_><var>0</var>
              <quality>8.1418864428997040e-03</quality>
              <le>7.9259800910949707e-01</le></_></splits></_>
        <_>
          <depth>7</depth>
          <value>-1.</value></_>
        <_>
          <depth>7</depth>
          <value>-6.3636363636363602e-01</value>
          <splits>
            <_><var>0</var>
              <quality>1.8482601735740900e-03</quality>
              <le>9.1024148464202881e-01</le></_></splits></_>
        <_>
          <depth>8</depth>
          <value>-3.9999999999999997e-01</value></_>
        <_>
          <depth>8</depth>
          <value>-1.</value></_>
        <_>
          <depth>5</depth>
          <value>2.4999999999999997e-01</value></_>
        <_>
          <depth>4</depth>
          <value>-1.2408759124087575e-01</value>
          <splits>
            <_><var>2</var>
              <quality>3.1044678762555122e-03</quality>
              <le>5.0000000000000000e-01</le></_></splits></_>
        <_>
          <depth>5</depth>
          <value>-5.4285714285714270e-01</value>
          <splits>
            <_><var>0</var>
              <quality>4.2247921228408813e-03</quality>
              <le>1.1047945022583008e+00</le></_></splits></_>
        <_>
          <depth>6</depth>
          <value>-3.0303030303030328e-02</value>
          <splits>
            <_><var>0</var>
              <quality>4.2448239400982857e-04</quality>
              <le>1.0192149877548218e+00</le></_></splits></_>
        <_>
          <depth>7</depth>
          <value>-3.7500000000000006e-01</value>
          <splits>
            <_><var>1</var>
              <quality>5.3103768732398748e-04</quality>
              <le>7.4168503284454346e-02</le></_></splits></_>
        <_>
          <depth>8</depth>
          <value>-6.3636363636363646e-01</value></_>
        <_>
          <depth>8</depth>
          <value>1.9999999999999998e-01</value></_>
        <_>
          <depth>7</depth>
          <value>2.9411764705882348e-01</value>
          <splits>
            <_><var>1</var>
              <quality>4.2702307109721005e-04</quality>
              <le>7.2029501199722290e-02</le></_></splits></_>
        <_>
          <depth>8</depth>
          <value>-1.4285714285714288e-01</value></_>
        <_>
          <depth>8</depth>
          <value>5.9999999999999998e-01</value></_>
        <_>
          <depth>6</depth>
          <value>-1.</value></_>
        <_>
          <depth>5</depth>
          <value>3.1343283582089515e-01</value>
          <splits>
            <_><var>0</var>
              <quality>1.2419525301083922e-03</quality>
              <le>1.1255630254745483e+00</le></_></splits></_>
        <_>
          <depth>6</depth>
          <value>3.9999999999999963e-01</value>
          <splits>
            <_><var>0</var>
              <quality>1.7768931575119495e-03</quality>
              <le>1.1110160350799561e+00</le></_></splits></_>
        <_>
          <depth>7</depth>
          <value>2.3404255319148903e-01</value>
          <splits>
            <_><var>0</var>
              <quality>1.4887370634824038e-03</quality>
              <le>1.0961945056915283e+00</le></_></splits></_>
        <_>
          <depth>8</depth>
          <value>4.1463414634146295e-01</value></_>
        <_>
          <depth>8</depth>
          <value>-1.</value></_>
        <_>
          <depth>7</depth>
          <value>1.</value></_>
        <_>
          <depth>6</depth>
          <value>-4.2857142857142866e-01</value></_>
        <_>
          <depth>2</depth>
          <value>7.6587301587301682e-01</value>
          <splits>
            <_><var>0</var>
              <quality>3.7392128258943558e-02</quality>
              <le>1.2925319671630859e+00</le></_></splits></_>
        <_>
          <depth>3</depth>
          <value>2.4210526315789446e-01</value>
          <splits>
            <_><var>0</var>
              <quality>3.1336755491793156e-03</quality>
              <le>1.2895309925079346e+00</le></_></splits></_>
        <_>
          <depth>4</depth>
          <value>4.4999999999999968e-01</value>
          <splits>
            <_><var>2</var>
              <quality>2.5526098906993866e-03</quality>
              <le>5.0000000000000000e-01</le></_></splits></_>
        <_>
          <depth>5</depth>
          <value>7.1428571428571314e-02</value>
          <splits>
            <_><var>0</var>
              <quality>5.8814376825466752e-04</quality>
              <le>1.2041665315628052e+00</le></_></splits></_>
        <_>
          <depth>6</depth>
          <value>4.1176470588235292e-01</value>
          <splits>
            <_><var>1</var>
              <quality>1.1571998475119472e-03</quality>
              <le>7.4763499200344086e-02</le></_></splits></_>
        <_>
          <depth>7</depth>
          <value>7.1428571428571430e-01</value>
          <splits>
            <_><var>1</var>
              <quality>8.7814830476418138e-04</quality>
              <le>7.3760494589805603e-02</le></_></splits></_>
        <_>
          <depth>8</depth>
          <value>8.1818181818181823e-01</value></_>
        <_>
          <depth>8</depth>
          <value>3.3333333333333331e-01</value></_>
        <_>
          <depth>7</depth>
          <value>-1.</value></_>
        <_>
          <depth>6</depth>
          <value>-4.5454545454545453e-01</value>
          <splits>
            <_><var>1</var>
              <quality>5.5143563076853752e-04</quality>
              <le>6.5119504928588867e-02</le></_></splits></_>
        <_>
          <depth>7</depth>
          <value>3.3333333333333331e-01</value></_>
        <_>
          <depth>7</depth>
          <value>-7.5000000000000000e-01</value></_>
        <_>
          <depth>5</depth>
          <value>6.5384615384615352e-01</value>
          <splits>
            <_><var>1</var>
              <quality>2.8589644934982061e-03</quality>
              <le>7.1106500923633575e-02</le></_></splits></_>
        <_>
          <depth>6</depth>
          <value>8.2352941176470562e-01</value>
          <splits>
            <_><var>3</var>
              <quality>2.7876626700162888e-03</quality>
              <le>5.</le></_></splits></_>
        <_>
          <depth>7</depth>
          <value>4.2857142857142860e-01</value></_>
        <_>
          <depth>7</depth>
          <value>9.2592592592592582e-01</value>
          <splits>
            <_><var>2</var>
              <quality>2.6747798547148705e-03</quality>
              <le>1.5000000000000000e+00</le></_></splits></_>
        <_>
          <depth>8</depth>
          <value>7.7777777777777768e-01</value></_>
        <_>
          <depth>8</depth>
          <value>1.</value></_>
        <_>
          <depth>6</depth>
          <value>3.3333333333333326e-01</value>
          <splits>
            <_><var>3</var>
              <quality>6.8454077700152993e-04</quality>
              <le>7.</le></_></splits></_>
        <_>
          <depth>7</depth>
          <value>4.9999999999999994e-01</value>
          <splits>
            <_><var>0</var>
              <quality>8.6293625645339489e-04</quality>
              <le>1.1785714626312256e+00</le></_></splits></_>
        <_>
          <depth>8</depth>
          <value>-2.0000000000000004e-01</value></_>
        <_>
          <depth>8</depth>
          <value>8.1818181818181823e-01</value></_>
        <_>
          <depth>7</depth>
          <value>-1.</value></_>
        <_>
          <depth>4</depth>
          <value>-8.6666666666666670e-01</value>
          <splits>
            <_><var>1</var>
              <quality>1.7113519133999944e-03</quality>
              <le>6.2636502087116241e-02</le></_></splits></_>
        <_>
          <depth>5</depth>
          <value>1.</value></_>
        <_>
          <depth>5</depth>
          <value>-1.</value></_>
        <_>
          <depth>3</depth>
          <value>8.8753056234718886e-01</value>
          <splits>
            <_><var>1</var>
              <quality>3.6872584372758865e-02</quality>
              <le>6.5880998969078064e-02</le></_></splits></_>
        <_>
          <depth>4</depth>
          <value>9.3103448275862133e-01</value>
          <splits>
            <_><var>3</var>
              <quality>2.2999819368124008e-02</quality>
              <le>5.</le></_></splits></_>
        <_>
          <depth>5</depth>
          <value>8.1818181818181790e-01</value>
          <splits>
            <_><var>2</var>
              <quality>2.6177347172051668e-03</quality>
              <le>10.</le></_></splits></_>
        <_>
          <depth>6</depth>
          <value>9.1666666666666652e-01</value>
          <splits>
            <_><var>0</var>
              <quality>2.3578626569360495e-03</quality>
              <le>1.6177774667739868e+00</le></_></splits></_>
        <_>
          <depth>7</depth>
          <value>6.6666666666666663e-01</value></_>
        <_>
          <depth>7</depth>
          <value>1.</value></_>
        <_>
          <depth>6</depth>
          <value>5.5555555555555558e-01</value></_>
        <_>
          <depth>5</depth>
          <value>9.4974874371859352e-01</value>
          <splits>
            <_><var>0</var>
              <quality>2.0511271432042122e-02</quality>
              <le>1.3535425662994385e+00</le></_></splits></_>
        <_>
          <depth>6</depth>
          <value>7.7777777777777768e-01</value></_>
        <_>
          <depth>6</depth>
          <value>9.5789473684210569e-01</value>
          <splits>
            <_><var>0</var>
              <quality>1.9925082102417946e-02</quality>
              <le>6.9702377319335938e+00</le></_></splits></_>
        <_>
          <depth>7</depth>
          <value>9.6685082872928219e-01</value>
          <splits>
            <_><var>1</var>
              <quality>1.9317580386996269e-02</quality>
              <le>6.0173500329256058e-02</le></_></splits></_>
        <_>
          <depth>8</depth>
          <value>9.4690265486725644e-01</value></_>
        <_>
          <depth>8</depth>
          <value>1.</value></_>
        <_>
          <depth>7</depth>
          <value>7.7777777777777768e-01</value></_>
        <_>
          <depth>4</depth>
          <value>8.3050847457627319e-01</value>
          <splits>
            <_><var>2</var>
              <quality>1.4405441470444202e-02</quality>
              <le>4.5000000000000000e+00</le></_></splits></_>
        <_>
          <depth>5</depth>
          <value>8.8535031847133905e-01</value>
          <splits>
            <_><var>1</var>
              <quality>1.4255700632929802e-02</quality>
              <le>7.0627003908157349e-02</le></_></splits></_>
        <_>
          <depth>6</depth>
          <value>7.8048780487804859e-01</value>
          <splits>
            <_><var>1</var>
              <quality>6.0650878585875034e-03</quality>
              <le>7.0602498948574066e-02</le></_></splits></_>
        <_>
          <depth>7</depth>
          <value>8.0246913580246892e-01</value>
          <splits>
            <_><var>0</var>
              <quality>6.2601100653409958e-03</quality>
              <le>1.3729884624481201e+00</le></_></splits></_>
        <_>
          <depth>8</depth>
          <value>2.4999999999999997e-01</value></_>
        <_>
          <depth>8</depth>
          <value>8.6301369863013677e-01</value></_>
        <_>
          <depth>7</depth>
          <value>-1.</value></_>
        <_>
          <depth>6</depth>
          <value>1.</value></_>
        <_>
          <depth>5</depth>
          <value>3.9999999999999986e-01</value>
          <splits>
            <_><var>1</var>
              <quality>8.9098961325362325e-04</quality>
              <le>7.2158001363277435e-02</le></_></splits></_>
        <_>
          <depth>6</depth>
          <value>-3.3333333333333337e-01</value></_>
        <_>
          <depth>6</depth>
          <value>7.1428571428571430e-01</value>
          <splits>
            <_><var>1</var>
              <quality>1.1760059278458357e-03</quality>
              <le>7.6137498021125793e-02</le></_></splits></_>
        <_>
          <depth>7</depth>
          <value>8.4615384615384615e-01</value>
          <splits>
            <_><var>2</var>
              <quality>1.1409013532102108e-03</quality>
              <le>11.</le></_></splits></_>
        <_>
          <depth>8</depth>
          <value>1.</value></_>
        <_>
          <depth>8</depth>
          <value>5.0000000000000000e-01</value></_>
        <_>
          <depth>7</depth>
          <value>-1.</value></_>
        <_>
          <depth>1</depth>
          <value>-7.3753761611931001e-01</value>
          <splits>
            <_><var>0</var>
              <quality>4.9511054158210754e-01</quality>
              <le>1.1357574462890625e+00</le></_></splits></_>
        <_>
          <depth>2</depth>
          <value>-8.1781914893615715e-01</value>
          <splits>
            <_><var>3</var>
              <quality>4.6488425135612488e-01</quality>
              <le>3.</le></_></splits></_>
        <_>
          <depth>3</depth>
          <value>-7.3312883435579290e-01</value>
          <splits>
            <_><var>1</var>
              <quality>2.0285154879093170e-01</quality>
              <le>2.1630799770355225e-01</le></_></splits></_>
        <_>
          <depth>4</depth>
          <value>-6.9449507838131175e-01</value>
          <splits>
            <_><var>1</var>
              <quality>1.5726082026958466e-01</quality>
              <le>1.7584601044654846e-01</le></_></splits></_>
        <_>
          <depth>5</depth>
          <value>-7.7854330708662534e-01</value>
          <splits>
            <_><var>2</var>
              <quality>1.4346437156200409e-01</quality>
              <le>1.5000000000000000e+00</le></_></splits></_>
        <_>
          <depth>6</depth>
          <value>-8.1619256017506492e-01</value>
          <splits>
            <_><var>1</var>
              <quality>1.4023014903068542e-01</quality>
              <le>8.7008997797966003e-02</le></_></splits></_>
        <_>
          <depth>7</depth>
          <value>-4.3243243243243218e-01</value>
          <splits>
            <_><var>2</var>
              <quality>2.9899256769567728e-03</quality>
              <le>5.0000000000000000e-01</le></_></splits></_>
        <_>
          <depth>8</depth>
          <value>-6.7272727272727251e-01</value></_>
        <_>
          <depth>8</depth>
          <value>2.6315789473684204e-01</value></_>
        <_>
          <depth>7</depth>
          <value>-8.3238312428735295e-01</value>
          <splits>
            <_><var>1</var>
              <quality>1.3930608332157135e-01</quality>
              <le>1.3086649775505066e-01</le></_></splits></_>
        <_>
          <depth>8</depth>
          <value>-8.8990825688073005e-01</value></_>
        <_>
          <depth>8</depth>
          <value>-7.7551020408162474e-01</value></_>
        <_>
          <depth>6</depth>
          <value>-4.4117647058823739e-01</value>
          <splits>
            <_><var>1</var>
              <quality>5.5152145214378834e-03</quality>
              <le>1.1327300220727921e-01</le></_></splits></_>
        <_>
          <depth>7</depth>
          <value>-1.1864406779661008e-01</value>
          <splits>
            <_><var>1</var>
              <quality>5.0821970216929913e-04</quality>
              <le>8.5919499397277832e-02</le></_></splits></_>
        <_>
          <depth>8</depth>
          <value>-6.3636363636363646e-01</value></_>
        <_>
          <depth>8</depth>
          <value>-7.4242437826839338e-17</value></_>
        <_>
          <depth>7</depth>
          <value>-5.7241379310344875e-01</value>
          <splits>
            <_><var>0</var>
              <quality>5.7353125885128975e-03</quality>
              <le>9.9590146541595459e-01</le></_></splits></_>
        <_>
          <depth>8</depth>
          <value>-6.1194029850746257e-01</value></_>
        <_>
          <depth>8</depth>
          <value>-9.0909090909090967e-02</value></_>
        <_>
          <depth>5</depth>
          <value>-4.5428973277074070e-01</value>
          <splits>
            <_><var>0</var>
              <quality>1.8351357430219650e-02</quality>
              <le>4.0946349501609802e-01</le></_></splits></_>
        <_>
          <depth>6</depth>
          <value>-8.8405797101449268e-01</value>
          <splits>
            <_><var>0</var>
              <quality>6.3075544312596321e-03</quality>
              <le>3.4346652030944824e-01</le></_></splits></_>
        <_>
          <depth>7</depth>
          <value>-1.</value></_>
        <_>
          <depth>7</depth>
          <value>-7.1428571428571397e-01</value>
          <splits>
            <_><var>0</var>
              <quality>2.0505799911916256e-03</quality>
              <le>3.4632700681686401e-01</le></_></splits></_>
        <_>
          <depth>8</depth>
          <value>3.3333333333333331e-01</value></_>
        <_>
          <depth>8</depth>
          <value>-8.3999999999999986e-01</value></_>
        <_>
          <depth>6</depth>
          <value>-4.0809968847351852e-01</value>
          <splits>
            <_><var>1</var>
              <quality>1.2991327792406082e-02</quality>
              <le>2.0797149837017059e-01</le></_></splits></_>
        <_>
          <depth>7</depth>
          <value>-3.5091277890466804e-01</value>
          <splits>
            <_><var>2</var>
              <quality>7.8922910615801811e-03</quality>
              <le>5.0000000000000000e-01</le></_></splits></_>
        <_>
          <depth>8</depth>
          <value>-2.8855721393035105e-01</value></_>
        <_>
          <depth>8</depth>
          <value>-6.2637362637362626e-01</value></_>
        <_>
          <depth>7</depth>
          <value>-5.9731543624161143e-01</value>
          <splits>
            <_><var>0</var>
              <quality>6.6366964019834995e-03</quality>
              <le>6.2882649898529053e-01</le></_></splits></_>
        <_>
          <depth>8</depth>
          <value>-8.9999999999999991e-01</value></_>
        <_>
          <depth>8</depth>
          <value>-4.8623853211009160e-01</value></_>
        <_>
          <depth>4</depth>
          <value>-9.3810444874274690e-01</value>
          <splits>
            <_><var>1</var>
              <quality>5.2144836634397507e-02</quality>
              <le>2.2222550213336945e-01</le></_></splits></_>
        <_>
          <depth>5</depth>
          <value>-8.6547085201793850e-01</value>
          <splits>
            <_><var>1</var>
              <quality>1.9360136240720749e-02</quality>
              <le>2.2200250625610352e-01</le></_></splits></_>
        <_>
          <depth>6</depth>
          <value>-8.8785046728972072e-01</value>
          <splits>
            <_><var>0</var>
              <quality>1.9316002726554871e-02</quality>
              <le>1.1142239570617676e+00</le></_></splits></_>
        <_>
          <depth>7</depth>
          <value>-8.9523809523809628e-01</value>
          <splits>
            <_><var>1</var>
              <quality>1.9280688837170601e-02</quality>
              <le>2.1863850951194763e-01</le></_></splits></_>
        <_>
          <depth>8</depth>
          <value>-9.7297297297297292e-01</value></_>
        <_>
          <depth>8</depth>
          <value>-8.5294117647058820e-01</value></_>
        <_>
          <depth>7</depth>
          <value>-5.0000000000000011e-01</value></_>
        <_>
          <depth>6</depth>
          <value>-3.3333333333333337e-01</value></_>
        <_>
          <depth>5</depth>
          <value>-9.9319727891156462e-01</value>
          <splits>
            <_><var>1</var>
              <quality>3.3090613782405853e-02</quality>
              <le>2.2537401318550110e-01</le></_></splits></_>
        <_>
          <depth>6</depth>
          <value>-9.8039215686274506e-01</value>
          <splits>
            <_><var>1</var>
              <quality>1.1637193150818348e-02</quality>
              <le>2.2528949379920959e-01</le></_></splits></_>
        <_>
          <depth>7</depth>
          <value>-1.</value></_>
        <_>
          <depth>7</depth>
          <value>1.</value></_>
        <_>
          <depth>6</depth>
          <value>-1.</value></_>
        <_>
          <depth>3</depth>
          <value>-9.1799709724236744e-01</value>
          <splits>
            <_><var>2</var>
              <quality>2.6738068461418152e-01</quality>
              <le>1.5000000000000000e+00</le></_></splits></_>
        <_>
          <depth>4</depth>
          <value>-9.5412064570942234e-01</value>
          <splits>
            <_><var>1</var>
              <quality>2.4500474333763123e-01</quality>
              <le>8.0350503325462341e-02</le></_></splits></_>
        <_>
          <depth>5</depth>
          <value>-7.9518072289156827e-01</value>
          <splits>
            <_><var>0</var>
              <quality>1.2485573068261147e-02</quality>
              <le>8.1265652179718018e-01</le></_></splits></_>
        <_>
          <depth>6</depth>
          <value>-9.5348837209302328e-01</value>
          <splits>
            <_><var>1</var>
              <quality>9.1326432302594185e-03</quality>
              <le>7.6448500156402588e-02</le></_></splits></_>
        <_>
          <depth>7</depth>
          <value>0.</value></_>
        <_>
          <depth>7</depth>
          <value>-9.7619047619047616e-01</value>
          <splits>
            <_><var>0</var>
              <quality>9.2032710090279579e-03</quality>
              <le>4.8410600423812866e-01</le></_></splits></_>
        <_>
          <depth>8</depth>
          <value>-6.6666666666666674e-01</value></_>
        <_>
          <depth>8</depth>
          <value>-1.</value></_>
        <_>
          <depth>6</depth>
          <value>-6.2499999999999989e-01</value>
          <splits>
            <_><var>3</var>
              <quality>4.1534258052706718e-03</quality>
              <le>5.</le></_></splits></_>
        <_>
          <depth>7</depth>
          <value>-3.5135135135135109e-01</value>
          <splits>
            <_><var>0</var>
              <quality>1.2013019295409322e-03</quality>
              <le>1.0925629138946533e+00</le></_></splits></_>
        <_>
          <depth>8</depth>
          <value>-4.7058823529411731e-01</value></_>
        <_>
          <depth>8</depth>
          <value>1.</value></_>
        <_>
          <depth>7</depth>
          <value>-8.6046511627906963e-01</value>
          <splits>
            <_><var>1</var>
              <quality>4.0048561058938503e-03</quality>
              <le>7.9772993922233582e-02</le></_></splits></_>
        <_>
          <depth>8</depth>
          <value>-9.4871794871794868e-01</value></_>
        <_>
          <depth>8</depth>
          <value>0.</value></_>
        <_>
          <depth>5</depth>
          <value>-9.6617915904936169e-01</value>
          <splits>
            <_><var>1</var>
              <quality>2.3324260115623474e-01</quality>
              <le>1.6993249952793121e-01</le></_></splits></_>
        <_>
          <depth>6</depth>
          <value>-9.6706312900274627e-01</value>
          <splits>
            <_><var>1</var>
              <quality>2.3337395489215851e-01</quality>
              <le>9.3103006482124329e-02</le></_></splits></_>
        <_>
          <depth>7</depth>
          <value>-9.3323657474600563e-01</value>
          <splits>
            <_><var>1</var>
              <quality>6.8889215588569641e-02</quality>
              <le>9.3091502785682678e-02</le></_></splits></_>
        <_>
          <depth>8</depth>
          <value>-9.3604651162790409e-01</value></_>
        <_>
          <depth>8</depth>
          <value>1.</value></_>
        <_>
          <depth>7</depth>
          <value>-9.8263193052772324e-01</value>
          <splits>
            <_><var>0</var>
              <quality>1.6495679318904877e-01</quality>
              <le>1.0794734954833984e+00</le></_></splits></_>
        <_>
          <depth>8</depth>
          <value>-9.8499317871759995e-01</value></_>
        <_>
          <depth>8</depth>
          <value>-8.7096774193548376e-01</value></_>
        <_>
          <depth>6</depth>
          <value>0.</value></_>
        <_>
          <depth>4</depth>
          <value>-7.0646766169154385e-01</value>
          <splits>
            <_><var>0</var>
              <quality>2.4733403697609901e-02</quality>
              <le>7.6453399658203125e-01</le></_></splits></_>
        <_>
          <depth>5</depth>
          <value>-8.9622641509434064e-01</value>
          <splits>
            <_><var>1</var>
              <quality>1.9772201776504517e-02</quality>
              <le>8.2161501049995422e-02</le></_></splits></_>
        <_>
          <depth>6</depth>
          <value>-5.4545454545454530e-01</value>
          <splits>
            <_><var>1</var>
              <quality>1.0322440648451447e-03</quality>
              <le>8.1679500639438629e-02</le></_></splits></_>
        <_>
          <depth>7</depth>
          <value>-6.1904761904761885e-01</value>
          <splits>
            <_><var>0</var>
              <quality>1.2342478148639202e-03</quality>
              <le>6.4423203468322754e-01</le></_></splits></_>
        <_>
          <depth>8</depth>
          <value>-2.7272727272727276e-01</value></_>
        <_>
          <depth>8</depth>
          <value>-1.</value></_>
        <_>
          <depth>7</depth>
          <value>1.</value></_>
        <_>
          <depth>6</depth>
          <value>-9.3684210526315859e-01</value>
          <splits>
            <_><var>2</var>
              <quality>1.9230930134654045e-02</quality>
              <le>4.5000000000000000e+00</le></_></splits></_>
        <_>
          <depth>7</depth>
          <value>-9.7560975609756129e-01</value>
          <splits>
            <_><var>1</var>
              <quality>1.7846660688519478e-02</quality>
              <le>8.8442996144294739e-02</le></_></splits></_>
        <_>
          <depth>8</depth>
          <value>-8.0000000000000004e-01</value></_>
        <_>
          <depth>8</depth>
          <value>-9.8701298701298723e-01</value></_>
        <_>
          <depth>7</depth>
          <value>-6.9230769230769196e-01</value>
          <splits>
            <_><var>2</var>
              <quality>1.5801483532413840e-03</quality>
              <le>5.5000000000000000e+00</le></_></splits></_>
        <_>
          <depth>8</depth>
          <value>-4.0000000000000002e-01</value></_>
        <_>
          <depth>8</depth>
          <value>-8.7500000000000000e-01</value></_>
        <_>
          <depth>5</depth>
          <value>-4.9473684210526514e-01</value>
          <splits>
            <_><var>3</var>
              <quality>6.3191265799105167e-03</quality>
              <le>5.</le></_></splits></_>
        <_>
          <depth>6</depth>
          <value>-3.2773109243697462e-01</value>
          <splits>
            <_><var>1</var>
              <quality>3.5338306333869696e-03</quality>
              <le>1.1191949993371964e-01</le></_></splits></_>
        <_>
          <depth>7</depth>
          <value>-3.8961038961038953e-02</value>
          <splits>
            <_><var>0</var>
              <quality>8.0633972538635135e-04</quality>
              <le>8.5554802417755127e-01</le></_></splits></_>
        <_>
          <depth>8</depth>
          <value>-3.5135135135135109e-01</value></_>
        <_>
          <depth>8</depth>
          <value>2.4999999999999972e-01</value></_>
        <_>
          <depth>7</depth>
          <value>-8.5714285714285698e-01</value>
          <splits>
            <_><var>2</var>
              <quality>3.6280662752687931e-03</quality>
              <le>2.5000000000000000e+00</le></_></splits></_>
        <_>
          <depth>8</depth>
          <value>-1.</value></_>
        <_>
          <depth>8</depth>
          <value>-6.9999999999999984e-01</value></_>
        <_>
          <depth>6</depth>
          <value>-7.7464788732394352e-01</value>
          <splits>
            <_><var>1</var>
              <quality>5.2253277972340584e-03</quality>
              <le>7.6591499149799347e-02</le></_></splits></_>
        <_>
          <depth>7</depth>
          <value>1.</value></_>
        <_>
          <depth>7</depth>
          <value>-7.9999999999999993e-01</value>
          <splits>
            <_><var>0</var>
              <quality>5.3068445995450020e-03</quality>
              <le>9.9557501077651978e-01</le></_></splits></_>
        <_>
          <depth>8</depth>
          <value>-9.1304347826086951e-01</value></_>
        <_>
          <depth>8</depth>
          <value>-5.8333333333333315e-01</value></_>
        <_>
          <depth>2</depth>
          <value>-4.4068838352797229e-01</value>
          <splits>
            <_><var>1</var>
              <quality>5.8877993375062943e-02</quality>
              <le>8.9917495846748352e-02</le></_></splits></_>
        <_>
          <depth>3</depth>
          <value>3.1707317073170971e-01</value>
          <splits>
            <_><var>0</var>
              <quality>6.4109060913324356e-03</quality>
              <le>1.4835494756698608e+00</le></_></splits></_>
        <_>
          <depth>4</depth>
          <value>3.2258064516129017e-02</value>
          <splits>
            <_><var>2</var>
              <quality>1.4926501316949725e-03</quality>
              <le>5.0000000000000000e-01</le></_></splits></_>
        <_>
          <depth>5</depth>
          <value>-3.0303030303030271e-01</value>
          <splits>
            <_><var>3</var>
              <quality>1.3002653140574694e-03</quality>
              <le>7.</le></_></splits></_>
        <_>
          <depth>6</depth>
          <value>-3.6507936507936478e-01</value>
          <splits>
            <_><var>1</var>
              <quality>1.2077817227691412e-03</quality>
              <le>8.8697001338005066e-02</le></_></splits></_>
        <_>
          <depth>7</depth>
          <value>-3.1034482758620652e-01</value>
          <splits>
            <_><var>1</var>
              <quality>1.1546782916411757e-03</quality>
              <le>8.8157497346401215e-02</le></_></splits></_>
        <_>
          <depth>8</depth>
          <value>-3.9622641509433926e-01</value></_>
        <_>
          <depth>8</depth>
          <value>5.9999999999999998e-01</value></_>
        <_>
          <depth>7</depth>
          <value>-1.</value></_>
        <_>
          <depth>6</depth>
          <value>1.</value></_>
        <_>
          <depth>5</depth>
          <value>2.8089887640449407e-01</value>
          <splits>
            <_><var>1</var>
              <quality>1.8231200519949198e-03</quality>
              <le>8.6156502366065979e-02</le></_></splits></_>
        <_>
          <depth>6</depth>
          <value>4.6268656716417883e-01</value>
          <splits>
            <_><var>0</var>
              <quality>2.3325912188738585e-03</quality>
              <le>1.4512209892272949e+00</le></_></splits></_>
        <_>
          <depth>7</depth>
          <value>5.4838709677419328e-01</value>
          <splits>
            <_><var>0</var>
              <quality>2.7646957896649837e-03</quality>
              <le>1.3509479761123657e+00</le></_></splits></_>
        <_>
          <depth>8</depth>
          <value>3.4883720930232515e-01</value></_>
        <_>
          <depth>8</depth>
          <value>1.</value></_>
        <_>
          <depth>7</depth>
          <value>-5.9999999999999998e-01</value></_>
        <_>
          <depth>6</depth>
          <value>-2.7272727272727265e-01</value>
          <splits>
            <_><var>1</var>
              <quality>5.9326866175979376e-04</quality>
              <le>8.9662000536918640e-02</le></_></splits></_>
        <_>
          <depth>7</depth>
          <value>-3.9999999999999997e-01</value>
          <splits>
            <_><var>0</var>
              <quality>6.3890474848449230e-04</quality>
              <le>1.1778655052185059e+00</le></_></splits></_>
        <_>
          <depth>8</depth>
          <value>-1.</value></_>
        <_>
          <depth>8</depth>
          <value>-2.0000000000000009e-01</value></_>
        <_>
          <depth>7</depth>
          <value>1.</value></_>
        <_>
          <depth>4</depth>
          <value>6.5151515151515127e-01</value>
          <splits>
            <_><var>3</var>
              <quality>6.8109533749520779e-03</quality>
              <le>5.</le></_></splits></_>
        <_>
          <depth>5</depth>
          <value>5.1282051282051255e-01</value>
          <splits>
            <_><var>0</var>
              <quality>2.6415544562041759e-03</quality>
              <le>1.6846590042114258e+00</le></_></splits></_>
        <_>
          <depth>6</depth>
          <value>8.7500000000000000e-01</value>
          <splits>
            <_><var>0</var>
              <quality>1.4603537274524570e-03</quality>
              <le>1.5550925731658936e+00</le></_></splits></_>
        <_>
          <depth>7</depth>
          <value>5.9999999999999998e-01</value></_>
        <_>
          <depth>7</depth>
          <value>1.</value></_>
        <_>
          <depth>6</depth>
          <value>4.1935483870967705e-01</value>
          <splits>
            <_><var>1</var>
              <quality>1.7134647350758314e-03</quality>
              <le>8.7624996900558472e-02</le></_></splits></_>
        <_>
          <depth>7</depth>
          <value>5.1851851851851816e-01</value>
          <splits>
            <_><var>0</var>
              <quality>1.9244637805968523e-03</quality>
              <le>1.6885774135589600e+00</le></_></splits></_>
        <_>
          <depth>8</depth>
          <value>-1.</value></_>
        <_>
          <depth>8</depth>
          <value>5.4716981132075437e-01</value></_>
        <_>
          <depth>7</depth>
          <value>-2.5000000000000011e-01</value></_>
        <_>
          <depth>5</depth>
          <value>8.5185185185185164e-01</value>
          <splits>
            <_><var>0</var>
              <quality>4.6402085572481155e-03</quality>
              <le>1.6150000095367432e+00</le></_></splits></_>
        <_>
          <depth>6</depth>
          <value>5.7142857142857140e-01</value>
          <splits>
            <_><var>0</var>
              <quality>1.1789313284680247e-03</quality>
              <le>1.6127889156341553e+00</le></_></splits></_>
        <_>
          <depth>7</depth>
          <value>8.3333333333333337e-01</value>
          <splits>
            <_><var>1</var>
              <quality>1.0268111946061254e-03</quality>
              <le>7.9253502190113068e-02</le></_></splits></_>
        <_>
          <depth>8</depth>
          <value>5.0000000000000000e-01</value></_>
        <_>
          <depth>8</depth>
          <value>1.</value></_>
        <_>
          <depth>7</depth>
          <value>-1.</value></_>
        <_>
          <depth>6</depth>
          <value>9.4999999999999996e-01</value>
          <splits>
            <_><var>2</var>
              <quality>4.1376687586307526e-03</quality>
              <le>1.5000000000000000e+00</le></_></splits></_>
        <_>
          <depth>7</depth>
          <value>1.</value></_>
        <_>
          <depth>7</depth>
          <value>8.6666666666666670e-01</value>
          <splits>
            <_><var>2</var>
              <quality>1.4071116456761956e-03</quality>
              <le>2.5000000000000000e+00</le></_></splits></_>
        <_>
          <depth>8</depth>
          <value>3.3333333333333331e-01</value></_>
        <_>
          <depth>8</depth>
          <value>1.</value></_>
        <_>
          <depth>3</depth>
          <value>-6.0298507462686979e-01</value>
          <splits>
            <_><var>0</var>
              <quality>5.9175807982683182e-02</quality>
              <le>4.0549855232238770e+00</le></_></splits></_>
        <_>
          <depth>4</depth>
          <value>-6.2951575710991869e-01</value>
          <splits>
            <_><var>2</var>
              <quality>6.2283076345920563e-02</quality>
              <le>5.0000000000000000e-01</le></_></splits></_>
        <_>
          <depth>5</depth>
          <value>-7.0065481758652071e-01</value>
          <splits>
            <_><var>1</var>
              <quality>6.0648500919342041e-02</quality>
              <le>1.1034299433231354e-01</le></_></splits></_>
        <_>
          <depth>6</depth>
          <value>-5.3846153846154110e-01</value>
          <splits>
            <_><var>0</var>
              <quality>8.2213459536433220e-03</quality>
              <le>1.4214420318603516e+00</le></_></splits></_>
        <_>
          <depth>7</depth>
          <value>-9.0322580645161288e-01</value>
          <splits>
            <_><var>0</var>
              <quality>5.9098689816892147e-03</quality>
              <le>1.3237855434417725e+00</le></_></splits></_>
        <_>
          <depth>8</depth>
          <value>-1.</value></_>
        <_>
          <depth>8</depth>
          <value>-6.9999999999999984e-01</value></_>
        <_>
          <depth>7</depth>
          <value>-3.8356164383561669e-01</value>
          <splits>
            <_><var>1</var>
              <quality>3.1195273622870445e-03</quality>
              <le>1.1021199822425842e-01</le></_></splits></_>
        <_>
          <depth>8</depth>
          <value>-4.1258741258741277e-01</value></_>
        <_>
          <depth>8</depth>
          <value>1.</value></_>
        <_>
          <depth>6</depth>
          <value>-7.3983739837397433e-01</value>
          <splits>
            <_><var>1</var>
              <quality>5.4186616092920303e-02</quality>
              <le>2.2134450078010559e-01</le></_></splits></_>
        <_>
          <depth>7</depth>
          <value>-7.2345679012344610e-01</value>
          <splits>
            <_><var>1</var>
              <quality>4.9197688698768616e-02</quality>
              <le>1.8995699286460876e-01</le></_></splits></_>
        <_>
          <depth>8</depth>
          <value>-7.6899696048631505e-01</value></_>
        <_>
          <depth>8</depth>
          <value>-5.2631578947368496e-01</value></_>
        <_>
          <depth>7</depth>
          <value>-1.</value></_>
        <_>
          <depth>5</depth>
          <value>-3.0172413793103625e-01</value>
          <splits>
            <_><var>1</var>
              <quality>3.5225837491452694e-03</quality>
              <le>1.0283599793910980e-01</le></_></splits></_>
        <_>
          <depth>6</depth>
          <value>-2.4390243902439032e-02</value>
          <splits>
            <_><var>0</var>
              <quality>6.5039540641009808e-04</quality>
              <le>1.3094015121459961e+00</le></_></splits></_>
        <_>
          <depth>7</depth>
          <value>-3.7931034482758602e-01</value>
          <splits>
            <_><var>2</var>
              <quality>1.0355873964726925e-03</quality>
              <le>2.5000000000000000e+00</le></_></splits></_>
        <_>
          <depth>8</depth>
          <value>-7.5000000000000000e-01</value></_>
        <_>
          <depth>8</depth>
          <value>7.6923076923076872e-02</value></_>
        <_>
          <depth>7</depth>
          <value>1.6981132075471672e-01</value>
          <splits>
            <_><var>1</var>
              <quality>4.7930970322340727e-04</quality>
              <le>9.5326997339725494e-02</le></_></splits></_>
        <_>
          <depth>8</depth>
          <value>4.1666666666666641e-01</value></_>
        <_>
          <depth>8</depth>
          <value>-3.4482758620689689e-02</value></_>
        <_>
          <depth>6</depth>
          <value>-4.5333333333333387e-01</value>
          <splits>
            <_><var>0</var>
              <quality>4.0475656278431416e-03</quality>
              <le>1.4794745445251465e+00</le></_></splits></_>
        <_>
          <depth>7</depth>
          <value>-6.2025316455696189e-01</value>
          <splits>
            <_><var>0</var>
              <quality>4.0773409418761730e-03</quality>
              <le>1.1885280609130859e+00</le></_></splits></_>
        <_>
          <depth>8</depth>
          <value>-2.5925925925925913e-01</value></_>
        <_>
          <depth>8</depth>
          <value>-8.0769230769230760e-01</value></_>
        <_>
          <depth>7</depth>
          <value>-2.6760563380281660e-01</value>
          <splits>
            <_><var>3</var>
              <quality>1.3571616727858782e-03</quality>
              <le>5.</le></_></splits></_>
        <_>
          <depth>8</depth>
          <value>-3.4328358208955195e-01</value></_>
        <_>
          <depth>8</depth>
          <value>1.</value></_>
        <_>
          <depth>4</depth>
          <value>2.8205128205128172e-01</value>
          <splits>
            <_><var>1</var>
              <quality>1.6902701463550329e-03</quality>
              <le>1.2212200462818146e-01</le></_></splits></_>
        <_>
          <depth>5</depth>
          <value>7.3913043478260831e-01</value>
          <splits>
            <_><var>1</var>
              <quality>1.7943265847861767e-03</quality>
              <le>9.2755496501922607e-02</le></_></splits></_>
        <_>
          <depth>6</depth>
          <value>-1.</value></_>
        <_>
          <depth>6</depth>
          <value>8.1818181818181790e-01</value>
          <splits>
            <_><var>0</var>
              <quality>1.7632110975682735e-03</quality>
              <le>5.2818179130554199e+00</le></_></splits></_>
        <_>
          <depth>7</depth>
          <value>6.3636363636363635e-01</value>
          <splits>
            <_><var>0</var>
              <quality>8.4426696412265301e-04</quality>
              <le>5.0838708877563477e+00</le></_></splits></_>
        <_>
          <depth>8</depth>
          <value>7.9999999999999993e-01</value></_>
        <_>
          <depth>8</depth>
          <value>-1.</value></_>
        <_>
          <depth>7</depth>
          <value>1.</value></_>
        <_>
          <depth>5</depth>
          <value>-3.7500000000000006e-01</value>
          <splits>
            <_><var>1</var>
              <quality>4.9439055146649480e-04</quality>
              <le>1.2886400520801544e-01</le></_></splits></_>
        <_>
          <depth>6</depth>
          <value>-1.</value></_>
        <_>
          <depth>6</depth>
          <value>-1.6666666666666671e-01</value>
          <splits>
            <_><var>1</var>
              <quality>6.5918744076043367e-04</quality>
              <le>1.3012400269508362e-01</le></_></splits></_>
        <_>
          <depth>7</depth>
          <value>1.</value></_>
        <_>
          <depth>7</depth>
          <value>-5.5555555555555558e-01</value></_></nodes></_>
    <_>
      <nodes>
        <_>
          <depth>0</depth>
          <value>-2.9058950192166771e-01</value>
          <splits>
            <_><var>0</var>
              <quality>1.1647351086139679e-01</quality>
              <le>9.9186897277832031e-01</le></_></splits></_>
        <_>
          <depth>1</depth>
          <value>-4.2824560199610584e-01</value>
          <splits>
            <_><var>3</var>
              <quality>1.2954665720462799e-01</quality>
              <le>3.</le></_></splits></_>
        <_>
          <depth>2</depth>
          <value>-2.9983843126535337e-01</value>
          <splits>
            <_><var>1</var>
              <quality>4.2395498603582382e-02</quality>
              <le>2.2222550213336945e-01</le></_></splits></_>
        <_>
          <depth>3</depth>
          <value>-2.6173966062461484e-01</value>
          <splits>
            <_><var>1</var>
              <quality>2.8247239068150520e-02</quality>
              <le>1.6412900388240814e-01</le></_></splits></_>
        <_>
          <depth>4</depth>
          <value>-3.6293113123623055e-01</value>
          <splits>
            <_><var>0</var>
              <quality>2.8985684737563133e-02</quality>
              <le>4.4865798950195312e-01</le></_></splits></_>
        <_>
          <depth>5</depth>
          <value>-1.1517566885025511e-01</value>
          <splits>
            <_><var>0</var>
              <quality>2.8481243643909693e-03</quality>
              <le>3.5689300298690796e-01</le></_></splits></_>
        <_>
          <depth>6</depth>
          <value>-3.8287027631437642e-01</value>
          <splits>
            <_><var>1</var>
              <quality>4.8063676804304123e-03</quality>
              <le>8.7837502360343933e-02</le></_></splits></_>
        <_>
          <depth>7</depth>
          <value>4.0163273662078608e-01</value>
          <splits>
            <_><var>0</var>
              <quality>8.4746244829148054e-04</quality>
              <le>3.4644401073455811e-01</le></_></splits></_>
        <_>
          <depth>8</depth>
          <value>4.9374233756468605e-01</value></_>
        <_>
          <depth>8</depth>
          <value>-1.</value></_>
        <_>
          <depth>7</depth>
          <value>-5.3271021874298408e-01</value>
          <splits>
            <_><var>1</var>
              <quality>5.0437613390386105e-03</quality>
              <le>1.3435050845146179e-01</le></_></splits></_>
        <_>
          <depth>8</depth>
          <value>-3.8002039895301631e-01</value></_>
        <_>
          <depth>8</depth>
          <value>-8.3625397036494165e-01</value></_>
        <_>
          <depth>6</depth>
          <value>8.6504258819332977e-02</value>
          <splits>
            <_><var>1</var>
              <quality>2.7078005950897932e-03</quality>
              <le>1.5150550007820129e-01</le></_></splits></_>
        <_>
          <depth>7</depth>
          <value>2.3681480386111503e-01</value>
          <splits>
            <_><var>1</var>
              <quality>1.9333227537572384e-03</quality>
              <le>1.3861399888992310e-01</le></_></splits></_>
        <_>
          <depth>8</depth>
          <value>7.8827815506517934e-02</value></_>
        <_>
          <depth>8</depth>
          <value>4.9791479148391793e-01</value></_>
        <_>
          <depth>7</depth>
          <value>-6.0958833356745024e-01</value>
          <splits>
            <_><var>0</var>
              <quality>2.3057977668941021e-03</quality>
              <le>3.6523199081420898e-01</le></_></splits></_>
        <_>
          <depth>8</depth>
          <value>4.0443222823864761e-01</value></_>
        <_>
          <depth>8</depth>
          <value>-7.7328202192936546e-01</value></_>
        <_>
          <depth>5</depth>
          <value>-4.3173535024872733e-01</value>
          <splits>
            <_><var>1</var>
              <quality>3.0710360035300255e-02</quality>
              <le>6.5365999937057495e-02</le></_></splits></_>
        <_>
          <depth>6</depth>
          <value>1.</value></_>
        <_>
          <depth>6</depth>
          <value>-4.4220785376409316e-01</value>
          <splits>
            <_><var>1</var>
              <quality>3.1046070158481598e-02</quality>
              <le>1.5039500594139099e-01</le></_></splits></_>
        <_>
          <depth>7</depth>
          <value>-4.8856849157767479e-01</value>
          <splits>
            <_><var>1</var>
              <quality>3.0958121642470360e-02</quality>
              <le>1.1695100367069244e-01</le></_></splits></_>
        <_>
          <depth>8</depth>
          <value>-3.6734514854293793e-01</value></_>
        <_>
          <depth>8</depth>
          <value>-5.8681907945876854e-01</value></_>
        <_>
          <depth>7</depth>
          <value>-2.3659942997579583e-01</value>
          <splits>
            <_><var>1</var>
              <quality>3.6913934163749218e-03</quality>
              <le>1.6038349270820618e-01</le></_></splits></_>
        <_>
          <depth>8</depth>
          <value>-8.8001227175350180e-02</value></_>
        <_>
          <depth>8</depth>
          <value>-7.5173218117243390e-01</value></_>
        <_>
          <depth>4</depth>
          <value>-1.3091501673627426e-01</value>
          <splits>
            <_><var>0</var>
              <quality>5.9662200510501862e-03</quality>
              <le>3.8551747798919678e-01</le></_></splits></_>
        <_>
          <depth>5</depth>
          <value>-8.0443739932923997e-01</value>
          <splits>
            <_><var>1</var>
              <quality>5.0414246506989002e-03</quality>
              <le>1.6673049330711365e-01</le></_></splits></_>
        <_>
          <depth>6</depth>
          <value>-2.0694720200201783e-01</value></_>
        <_>
          <depth>6</depth>
          <value>-9.0868941278756032e-01</value>
          <splits>
            <_><var>0</var>
              <quality>5.0944541580975056e-03</quality>
              <le>3.4398251771926880e-01</le></_></splits></_>
        <_>
          <depth>7</depth>
          <value>-1.</value></_>
        <_>
          <depth>7</depth>
          <value>-7.3087124452659247e-01</value>
          <splits>
            <_><var>0</var>
              <quality>1.5077306888997555e-03</quality>
              <le>3.4632700681686401e-01</le></_></splits></_>
        <_>
          <depth>8</depth>
          <value>1.3239473376737669e-02</value></_>
        <_>
          <depth>8</depth>
          <value>-1.</value></_>
        <_>
          <depth>5</depth>
          <value>-9.7583836105606975e-02</value>
          <splits>
            <_><var>1</var>
              <quality>4.6360632404685020e-03</quality>
              <le>2.1467100083827972e-01</le></_></splits></_>
        <_>
          <depth>6</depth>
          <value>-2.8148592789307293e-02</value>
          <splits>
            <_><var>0</var>
              <quality>1.3932201545685530e-03</quality>
              <le>4.5368748903274536e-01</le></_></splits></_>
        <_>
          <depth>7</depth>
          <value>2.5371514268312223e-01</value>
          <splits>
            <_><var>1</var>
              <quality>2.9139551334083080e-03</quality>
              <le>2.0467700064182281e-01</le></_></splits></_>
        <_>
          <depth>8</depth>
          <value>3.6410081001913497e-01</value></_>
        <_>
          <depth>8</depth>
          <value>-1.</value></_>
        <_>
          <depth>7</depth>
          <value>-6.7049285741015333e-02</value>
          <splits>
            <_><var>0</var>
              <quality>1.5721250092610717e-03</quality>
              <le>7.2176647186279297e-01</le></_></splits></_>
        <_>
          <depth>8</depth>
          <value>-1.7044521919991895e-01</value></_>
        <_>
          <depth>8</depth>
          <value>3.5489987127523895e-02</value></_>
        <_>
          <depth>6</depth>
          <value>-4.2539577768483539e-01</value>
          <splits>
            <_><var>0</var>
              <quality>5.3814561106264591e-03</quality>
              <le>7.1770846843719482e-01</le></_></splits></_>
        <_>
          <depth>7</depth>
          <value>-8.0699449911536947e-01</value>
          <splits>
            <_><var>1</var>
              <quality>4.0491833351552486e-03</quality>
              <le>2.2034499049186707e-01</le></_></splits></_>
        <_>
          <depth>8</depth>
          <value>-1.</value></_>
        <_>
          <depth>8</depth>
          <value>2.9463561202363614e-01</value></_>
        <_>
          <depth>7</depth>
          <value>-3.3777113370369571e-01</value>
          <splits>
            <_><var>0</var>
              <quality>3.8740248419344425e-03</quality>
              <le>7.3251998424530029e-01</le></_></splits></_>
        <_>
          <depth>8</depth>
          <value>5.0144241748334728e-01</value></_>
        <_>
          <depth>8</depth>
          <value>-4.2796749535550732e-01</value></_>
        <_>
          <depth>3</depth>
          <value>-9.9253731343283580e-01</value>
          <splits>
            <_><var>1</var>
              <quality>1.8724881112575531e-02</quality>
              <le>2.2537401318550110e-01</le></_></splits></_>
        <_>
          <depth>4</depth>
          <value>-9.7752808988764039e-01</value>
          <splits>
            <_><var>1</var>
              <quality>6.3114804215729237e-03</quality>
              <le>2.2528949379920959e-01</le></_></splits></_>
        <_>
          <depth>5</depth>
          <value>-1.</value></_>
        <_>
          <depth>5</depth>
          <value>1.</value></_>
        <_>
          <depth>4</depth>
          <value>-1.</value></_>
        <_>
          <depth>2</depth>
          <value>-6.0572931954298870e-01</value>
          <splits>
            <_><var>1</var>
              <quality>1.1425292491912842e-01</quality>
              <le>7.7570006251335144e-02</le></_></splits></_>
        <_>
          <depth>3</depth>
          <value>-1.5960010895974108e-01</value>
          <splits>
            <_><var>1</var>
              <quality>2.7571178507059813e-03</quality>
              <le>6.7456007003784180e-02</le></_></splits></_>
        <_>
          <depth>4</depth>
          <value>2.4781711517734940e-02</value>
          <splits>
            <_><var>0</var>
              <quality>1.2953699333593249e-03</quality>
              <le>8.7129050493240356e-01</le></_></splits></_>
        <_>
          <depth>5</depth>
          <value>1.3113802679335534e-01</value>
          <splits>
            <_><var>1</var>
              <quality>9.9431176204234362e-04</quality>
              <le>6.6989496350288391e-02</le></_></splits></_>
        <_>
          <depth>6</depth>
          <value>6.1644370672031441e-02</value>
          <splits>
            <_><var>1</var>
              <quality>1.3795298291370273e-03</quality>
              <le>6.6378995776176453e-02</le></_></splits></_>
        <_>
          <depth>7</depth>
          <value>1.3936729915317672e-01</value>
          <splits>
            <_><var>1</var>
              <quality>1.1187831405550241e-03</quality>
              <le>6.6168501973152161e-02</le></_></splits></_>
        <_>
          <depth>8</depth>
          <value>6.1193713880155466e-02</value></_>
        <_>
          <depth>8</depth>
          <value>8.5189994466156538e-01</value></_>
        <_>
          <depth>7</depth>
          <value>-1.</value></_>
        <_>
          <depth>6</depth>
          <value>6.7794710344857534e-01</value></_>
        <_>
          <depth>5</depth>
          <value>-5.3811541923084527e-01</value>
          <splits>
            <_><var>0</var>
              <quality>2.1660330239683390e-03</quality>
              <le>9.8294150829315186e-01</le></_></splits></_>
        <_>
          <depth>6</depth>
          <value>-7.6360024821411809e-01</value>
          <splits>
            <_><var>1</var>
              <quality>2.4436502717435360e-03</quality>
              <le>4.9588002264499664e-02</le></_></splits></_>
        <_>
          <depth>7</depth>
          <value>1.</value></_>
        <_>
          <depth>7</depth>
          <value>-8.9975389357756985e-01</value>
          <splits>
            <_><var>1</var>
              <quality>2.3488267324864864e-03</quality>
              <le>5.7500496506690979e-02</le></_></splits></_>
        <_>
          <depth>8</depth>
          <value>-4.7288185529144638e-01</value></_>
        <_>
          <depth>8</depth>
          <value>-1.</value></_>
        <_>
          <depth>6</depth>
          <value>1.</value></_>
        <_>
          <depth>4</depth>
          <value>-2.4839959260654088e-01</value>
          <splits>
            <_><var>0</var>
              <quality>3.9065163582563400e-03</quality>
              <le>9.6970403194427490e-01</le></_></splits></_>
        <_>
          <depth>5</depth>
          <value>-2.1361808352429865e-01</value>
          <splits>
            <_><var>0</var>
              <quality>3.7232935428619385e-03</quality>
              <le>9.5021653175354004e-01</le></_></splits></_>
        <_>
          <depth>6</depth>
          <value>-2.6136405444716776e-01</value>
          <splits>
            <_><var>0</var>
              <quality>3.7913545966148376e-03</quality>
              <le>7.9616498947143555e-01</le></_></splits></_>
        <_>
          <depth>7</depth>
          <value>-3.9883183685531931e-01</value>
          <splits>
            <_><var>0</var>
              <quality>4.8731714487075806e-03</quality>
              <le>5.6669950485229492e-01</le></_></splits></_>
        <_>
          <depth>8</depth>
          <value>-5.7379927579858221e-02</value></_>
        <_>
          <depth>8</depth>
          <value>-5.4696120607436260e-01</value></_>
        <_>
          <depth>7</depth>
          <value>-7.4162255841388552e-02</value>
          <splits>
            <_><var>0</var>
              <quality>1.3012251583859324e-03</quality>
              <le>8.2375800609588623e-01</le></_></splits></_>
        <_>
          <depth>8</depth>
          <value>4.2742862411311761e-01</value></_>
        <_>
          <depth>8</depth>
          <value>-2.1517710764641673e-01</value></_>
        <_>
          <depth>6</depth>
          <value>6.6532277939662576e-01</value>
          <splits>
            <_><var>0</var>
              <quality>1.2737987563014030e-03</quality>
              <le>9.5875847339630127e-01</le></_></splits></_>
        <_>
          <depth>7</depth>
          <value>1.</value></_>
        <_>
          <depth>7</depth>
          <value>2.4999004167580327e-01</value></_>
        <_>
          <depth>5</depth>
          <value>-1.</value></_>
        <_>
          <depth>3</depth>
          <value>-7.5429153074179156e-01</value>
          <splits>
            <_><var>2</var>
              <quality>1.1748922616243362e-01</quality>
              <le>2.5000000000000000e+00</le></_></splits></_>
        <_>
          <depth>4</depth>
          <value>-8.0016442207688943e-01</value>
          <splits>
            <_><var>1</var>
              <quality>1.1793952435255051e-01</quality>
              <le>9.2918001115322113e-02</le></_></splits></_>
        <_>
          <depth>5</depth>
          <value>-6.9107379464533170e-01</value>
          <splits>
            <_><var>1</var>
              <quality>3.2318904995918274e-02</quality>
              <le>9.2838004231452942e-02</le></_></splits></_>
        <_>
          <depth>6</depth>
          <value>-7.1678800285538991e-01</value>
          <splits>
            <_><var>0</var>
              <quality>3.2664652913808823e-02</quality>
              <le>9.1252148151397705e-01</le></_></splits></_>
        <_>
          <depth>7</depth>
          <value>-7.6085459293435431e-01</value>
          <splits>
            <_><var>2</var>
              <quality>3.1829070299863815e-02</quality>
              <le>1.5000000000000000e+00</le></_></splits></_>
        <_>
          <depth>8</depth>
          <value>-7.9327660473015005e-01</value></_>
        <_>
          <depth>8</depth>
          <value>-4.6300893338344967e-01</value></_>
        <_>
          <depth>7</depth>
          <value>-4.1480268617419358e-01</value>
          <splits>
            <_><var>2</var>
              <quality>2.4572154507040977e-03</quality>
              <le>5.0000000000000000e-01</le></_></splits></_>
        <_>
          <depth>8</depth>
          <value>-1.</value></_>
        <_>
          <depth>8</depth>
          <value>-1.7673973933405407e-01</value></_>
        <_>
          <depth>6</depth>
          <value>6.3015000792216147e-01</value></_>
        <_>
          <depth>5</depth>
          <value>-8.5796891805014730e-01</value>
          <splits>
            <_><var>2</var>
              <quality>8.8428966701030731e-02</quality>
              <le>1.5000000000000000e+00</le></_></splits></_>
        <_>
          <depth>6</depth>
          <value>-8.8678801368840010e-01</value>
          <splits>
            <_><var>0</var>
              <quality>8.2213006913661957e-02</quality>
              <le>9.8196852207183838e-01</le></_></splits></_>
        <_>
          <depth>7</depth>
          <value>-8.9549661413287196e-01</value>
          <splits>
            <_><var>0</var>
              <quality>8.2703046500682831e-02</quality>
              <le>4.6615800261497498e-01</le></_></splits></_>
        <_>
          <depth>8</depth>
          <value>-6.7060109833000914e-01</value></_>
        <_>
          <depth>8</depth>
          <value>-9.1821523887536549e-01</value></_>
        <_>
          <depth>7</depth>
          <value>-1.6478312755174593e-01</value>
          <splits>
            <_><var>0</var>
              <quality>9.8336278460919857e-04</quality>
              <le>9.8280102014541626e-01</le></_></splits></_>
        <_>
          <depth>8</depth>
          <value>7.5521928750689882e-01</value></_>
        <_>
          <depth>8</depth>
          <value>-1.</value></_>
        <_>
          <depth>6</depth>
          <value>-6.6532517268793900e-01</value>
          <splits>
            <_><var>0</var>
              <quality>7.9318154603242874e-03</quality>
              <le>6.9951450824737549e-01</le></_></splits></_>
        <_>
          <depth>7</depth>
          <value>-1.</value></_>
        <_>
          <depth>7</depth>
          <value>-4.6047288900603317e-01</value>
          <splits>
            <_><var>0</var>
              <quality>3.2066467683762312e-03</quality>
              <le>7.0074653625488281e-01</le></_></splits></_>
        <_>
          <depth>8</depth>
          <value>1.</value></_>
        <_>
          <depth>8</depth>
          <value>-5.4341906192253620e-01</value></_>
        <_>
          <depth>4</depth>
          <value>-2.1282429505028425e-01</value>
          <splits>
            <_><var>1</var>
              <quality>1.6683392459526658e-03</quality>
              <le>8.8408499956130981e-02</le></_></splits></_>
        <_>
          <depth>5</depth>
          <value>1.9860219233848125e-01</value>
          <splits>
            <_><var>3</var>
              <quality>1.7196377739310265e-03</quality>
              <le>5.</le></_></splits></_>
        <_>
          <depth>6</depth>
          <value>5.0931813230365908e-01</value>
          <splits>
            <_><var>1</var>
              <quality>2.4147322401404381e-03</quality>
              <le>7.8432001173496246e-02</le></_></splits></_>
        <_>
          <depth>7</depth>
          <value>-1.</value></_>
        <_>
          <depth>7</depth>
          <value>8.1996837892391150e-01</value>
          <splits>
            <_><var>0</var>
              <quality>2.1107974462211132e-03</quality>
              <le>8.5373497009277344e-01</le></_></splits></_>
        <_>
          <depth>8</depth>
          <value>1.</value></_>
        <_>
          <depth>8</depth>
          <value>2.9067751121511332e-01</value></_>
        <_>
          <depth>6</depth>
          <value>-1.</value></_>
        <_>
          <depth>5</depth>
          <value>-3.6513364367119905e-01</value>
          <splits>
            <_><var>1</var>
              <quality>2.0254352129995823e-03</quality>
              <le>1.2971249222755432e-01</le></_></splits></_>
        <_>
          <depth>6</depth>
          <value>-2.9226196288420409e-01</value>
          <splits>
            <_><var>1</var>
              <quality>1.6326574841514230e-03</quality>
              <le>1.2810799479484558e-01</le></_></splits></_>
        <_>
          <depth>7</depth>
          <value>-3.6480563481746126e-01</value>
          <splits>
            <_><var>0</var>
              <quality>1.8947165226563811e-03</quality>
              <le>7.6885598897933960e-01</le></_></splits></_>
        <_>
          <depth>8</depth>
          <value>-6.4978432507009565e-01</value></_>
        <_>
          <depth>8</depth>
          <value>-1.2910031041604447e-01</value></_>
        <_>
          <depth>7</depth>
          <value>7.5482392697500444e-01</value></_>
        <_>
          <depth>6</depth>
          <value>-1.</value></_>
        <_>
          <depth>1</depth>
          <value>-5.7899091146486836e-02</value>
          <splits>
            <_><var>1</var>
              <quality>1.6488114371895790e-02</quality>
              <le>8.5188001394271851e-02</le></_></splits></_>
        <_>
          <depth>2</depth>
          <value>2.5822915573780719e-01</value>
          <splits>
            <_><var>0</var>
              <quality>1.4742176048457623e-02</quality>
              <le>1.3555159568786621e+00</le></_></splits></_>
        <_>
          <depth>3</depth>
          <value>1.3717076644258261e-02</value>
          <splits>
            <_><var>2</var>
              <quality>3.5080842208117247e-03</quality>
              <le>5.0000000000000000e-01</le></_></splits></_>
        <_>
          <depth>4</depth>
          <value>-2.5790901854991510e-01</value>
          <splits>
            <_><var>3</var>
              <quality>4.1747242212295532e-03</quality>
              <le>7.</le></_></splits></_>
        <_>
          <depth>5</depth>
          <value>-1.1365811340277732e-01</value>
          <splits>
            <_><var>0</var>
              <quality>1.5863822773098946e-03</quality>
              <le>1.0059524774551392e+00</le></_></splits></_>
        <_>
          <depth>6</depth>
          <value>5.4588541902399468e-01</value>
          <splits>
            <_><var>1</var>
              <quality>1.1192962992936373e-03</quality>
              <le>7.9735502600669861e-02</le></_></splits></_>
        <_>
          <depth>7</depth>
          <value>1.5139736917939675e-01</value></_>
        <_>
          <depth>7</depth>
          <value>8.6516817298945303e-01</value></_>
        <_>
          <depth>6</depth>
          <value>-2.0668870575654918e-01</value>
          <splits>
            <_><var>0</var>
              <quality>1.8854787340387702e-03</quality>
              <le>1.0425724983215332e+00</le></_></splits></_>
        <_>
          <depth>7</depth>
          <value>-8.9608596720250133e-01</value>
          <splits>
            <_><var>3</var>
              <quality>1.7609776696190238e-03</quality>
              <le>3.</le></_></splits></_>
        <_>
          <depth>8</depth>
          <value>-3.0062809249512928e-01</value></_>
        <_>
          <depth>8</depth>
          <value>-1.</value></_>
        <_>
          <depth>7</depth>
          <value>-1.2254014201224027e-01</value>
          <splits>
            <_><var>0</var>
              <quality>1.7754147993400693e-03</quality>
              <le>1.0475025177001953e+00</le></_></splits></_>
        <_>
          <depth>8</depth>
          <value>1.</value></_>
        <_>
          <depth>8</depth>
          <value>-2.0397460165503262e-01</value></_>
        <_>
          <depth>5</depth>
          <value>-9.0473216799324574e-01</value>
          <splits>
            <_><var>0</var>
              <quality>4.5032193884253502e-03</quality>
              <le>1.1514325141906738e+00</le></_></splits></_>
        <_>
          <depth>6</depth>
          <value>-1.</value></_>
        <_>
          <depth>6</depth>
          <value>4.2721182495812260e-01</value></_>
        <_>
          <depth>4</depth>
          <value>2.3498033250561942e-01</value>
          <splits>
            <_><var>0</var>
              <quality>3.2594774384051561e-03</quality>
              <le>1.3489999771118164e+00</le></_></splits></_>
        <_>
          <depth>5</depth>
          <value>2.8024821146309775e-01</value>
          <splits>
            <_><var>0</var>
              <quality>3.2664886675775051e-03</quality>
              <le>1.0774224996566772e+00</le></_></splits></_>
        <_>
          <depth>6</depth>
          <value>5.4200355476370021e-01</value>
          <splits>
            <_><var>2</var>
              <quality>3.1731503549963236e-03</quality>
              <le>6.5000000000000000e+00</le></_></splits></_>
        <_>
          <depth>7</depth>
          <value>6.5517337867046488e-01</value>
          <splits>
            <_><var>3</var>
              <quality>3.4124415833503008e-03</quality>
              <le>9.</le></_></splits></_>
        <_>
          <depth>8</depth>
          <value>6.7480234143635487e-01</value></_>
        <_>
          <depth>8</depth>
          <value>-1.</value></_>
        <_>
          <depth>7</depth>
          <value>-2.3503578366717050e-02</value>
          <splits>
            <_><var>2</var>
              <quality>9.2010787921026349e-04</quality>
              <le>9.5000000000000000e+00</le></_></splits></_>
        <_>
          <depth>8</depth>
          <value>-1.</value></_>
        <_>
          <depth>8</depth>
          <value>6.1303307467904011e-01</value></_>
        <_>
          <depth>6</depth>
          <value>1.7395729838569540e-01</value>
          <splits>
            <_><var>0</var>
              <quality>2.1497034467756748e-03</quality>
              <le>1.2113249301910400e+00</le></_></splits></_>
        <_>
          <depth>7</depth>
          <value>-5.4883341818705515e-02</value>
          <splits>
            <_><var>1</var>
              <quality>1.6796772833913565e-03</quality>
              <le>7.9597502946853638e-02</le></_></splits></_>
        <_>
          <depth>8</depth>
          <value>1.4968447739518512e-01</value></_>
        <_>
          <depth>8</depth>
          <value>-7.0490612311815648e-01</value></_>
        <_>
          <depth>7</depth>
          <value>4.7180590070613265e-01</value>
          <splits>
            <_><var>1</var>
              <quality>2.6140669360756874e-03</quality>
              <le>7.4284493923187256e-02</le></_></splits></_>
        <_>
          <depth>8</depth>
          <value>7.3113336045250776e-01</value></_>
        <_>
          <depth>8</depth>
          <value>2.6800168576341654e-01</value></_>
        <_>
          <depth>5</depth>
          <value>-7.9071750568000032e-01</value></_>
        <_>
          <depth>3</depth>
          <value>5.4303740886147622e-01</value>
          <splits>
            <_><var>3</var>
              <quality>1.6438623890280724e-02</quality>
              <le>5.</le></_></splits></_>
        <_>
          <depth>4</depth>
          <value>2.9209537562528981e-01</value>
          <splits>
            <_><var>0</var>
              <quality>2.1806266158819199e-03</quality>
              <le>1.4482994079589844e+00</le></_></splits></_>
        <_>
          <depth>5</depth>
          <value>7.8524316934492211e-01</value>
          <splits>
            <_><var>1</var>
              <quality>1.6545037506148219e-03</quality>
              <le>7.9521000385284424e-02</le></_></splits></_>
        <_>
          <depth>6</depth>
          <value>1.</value></_>
        <_>
          <depth>6</depth>
          <value>4.6745513468907807e-01</value></_>
        <_>
          <depth>5</depth>
          <value>2.1350322378962380e-01</value>
          <splits>
            <_><var>0</var>
              <quality>2.1751828026026487e-03</quality>
              <le>1.4963769912719727e+00</le></_></splits></_>
        <_>
          <depth>6</depth>
          <value>-7.6043472933743417e-01</value></_>
        <_>
          <depth>6</depth>
          <value>3.1403169473486531e-01</value>
          <splits>
            <_><var>1</var>
              <quality>2.0250726956874132e-03</quality>
              <le>6.0166001319885254e-02</le></_></splits></_>
        <_>
          <depth>7</depth>
          <value>1.</value></_>
        <_>
          <depth>7</depth>
          <value>2.4294573217540399e-01</value>
          <splits>
            <_><var>2</var>
              <quality>1.6002232441678643e-03</quality>
              <le>1.5000000000000000e+00</le></_></splits></_>
        <_>
          <depth>8</depth>
          <value>4.4891717236621409e-01</value></_>
        <_>
          <depth>8</depth>
          <value>-9.4505264841344305e-02</value></_>
        <_>
          <depth>4</depth>
          <value>6.7923881966252087e-01</value>
          <splits>
            <_><var>1</var>
              <quality>1.5612365677952766e-02</quality>
              <le>8.2174003124237061e-02</le></_></splits></_>
        <_>
          <depth>5</depth>
          <value>7.1341018844281079e-01</value>
          <splits>
            <_><var>2</var>
              <quality>1.5853850170969963e-02</quality>
              <le>1.2500000000000000e+01</le></_></splits></_>
        <_>
          <depth>6</depth>
          <value>6.8494372731766739e-01</value>
          <splits>
            <_><var>2</var>
              <quality>1.3636840507388115e-02</quality>
              <le>4.5000000000000000e+00</le></_></splits></_>
        <_>
          <depth>7</depth>
          <value>7.5744514916108996e-01</value>
          <splits>
            <_><var>0</var>
              <quality>1.3365037739276886e-02</quality>
              <le>1.7041244506835938e+00</le></_></splits></_>
        <_>
          <depth>8</depth>
          <value>6.1351950229593444e-01</value></_>
        <_>
          <depth>8</depth>
          <value>9.8346316877570672e-01</value></_>
        <_>
          <depth>7</depth>
          <value>4.1140045095075556e-01</value>
          <splits>
            <_><var>0</var>
              <quality>1.7185156466439366e-03</quality>
              <le>1.9502454996109009e+00</le></_></splits></_>
        <_>
          <depth>8</depth>
          <value>7.9437389327717955e-01</value></_>
        <_>
          <depth>8</depth>
          <value>8.5361304237939473e-02</value></_>
        <_>
          <depth>6</depth>
          <value>1.</value></_>
        <_>
          <depth>5</depth>
          <value>7.0809717888066614e-02</value>
          <splits>
            <_><var>1</var>
              <quality>7.4912229320034385e-04</quality>
              <le>8.2449004054069519e-02</le></_></splits></_>
        <_>
          <depth>6</depth>
          <value>-1.</value></_>
        <_>
          <depth>6</depth>
          <value>4.7241914409143593e-01</value>
          <splits>
            <_><var>0</var>
              <quality>7.6762086246162653e-04</quality>
              <le>1.4144320487976074e+00</le></_></splits></_>
        <_>
          <depth>7</depth>
          <value>-5.7063259663240540e-01</value></_>
        <_>
          <depth>7</depth>
          <value>8.4615384615384626e-01</value>
          <splits>
            <_><var>0</var>
              <quality>6.8551657022908330e-04</quality>
              <le>1.6170115470886230e+00</le></_></splits></_>
        <_>
          <depth>8</depth>
          <value>6.6666666666666663e-01</value></_>
        <_>
          <depth>8</depth>
          <value>1.</value></_>
        <_>
          <depth>2</depth>
          <value>-1.8761513617131026e-01</value>
          <splits>
            <_><var>1</var>
              <quality>1.3016078621149063e-02</quality>
              <le>2.2134450078010559e-01</le></_></splits></_>
        <_>
          <depth>3</depth>
          <value>-1.7015101922503184e-01</value>
          <splits>
            <_><var>0</var>
              <quality>1.0029618628323078e-02</quality>
              <le>3.0517854690551758e+00</le></_></splits></_>
        <_>
          <depth>4</depth>
          <value>-2.0027487300383828e-01</value>
          <splits>
            <_><var>3</var>
              <quality>1.2063493952155113e-02</quality>
              <le>3.</le></_></splits></_>
        <_>
          <depth>5</depth>
          <value>-1.2603217423101135e-01</value>
          <splits>
            <_><var>0</var>
              <quality>6.1359964311122894e-03</quality>
              <le>1.8878405094146729e+00</le></_></splits></_>
        <_>
          <depth>6</depth>
          <value>-5.3737001255306914e-02</value>
          <splits>
            <_><var>1</var>
              <quality>1.8943925388157368e-03</quality>
              <le>1.1034499853849411e-01</le></_></splits></_>
        <_>
          <depth>7</depth>
          <value>1.8189712995822332e-01</value>
          <splits>
            <_><var>0</var>
              <quality>1.6014011343941092e-03</quality>
              <le>1.7201925516128540e+00</le></_></splits></_>
        <_>
          <depth>8</depth>
          <value>1.0080879742829249e-01</value></_>
        <_>
          <depth>8</depth>
          <value>6.4732431356353082e-01</value></_>
        <_>
          <depth>7</depth>
          <value>-1.0419703776792484e-01</value>
          <splits>
            <_><var>1</var>
              <quality>3.3914139494299889e-03</quality>
              <le>1.3393549621105194e-01</le></_></splits></_>
        <_>
          <depth>8</depth>
          <value>-4.0088085183050209e-01</value></_>
        <_>
          <depth>8</depth>
          <value>-3.2524471630629909e-02</value></_>
        <_>
          <depth>6</depth>
          <value>-4.4655477150664713e-01</value>
          <splits>
            <_><var>0</var>
              <quality>7.0462240837514400e-03</quality>
              <le>2.3614983558654785e+00</le></_></splits></_>
        <_>
          <depth>7</depth>
          <value>-6.5502390529044474e-01</value>
          <splits>
            <_><var>1</var>
              <quality>6.7516257986426353e-03</quality>
              <le>1.0097250342369080e-01</le></_></splits></_>
        <_>
          <depth>8</depth>
          <value>1.4268602365569097e-01</value></_>
        <_>
          <depth>8</depth>
          <value>-6.9715979116523652e-01</value></_>
        <_>
          <depth>7</depth>
          <value>-2.3413571253007384e-01</value>
          <splits>
            <_><var>0</var>
              <quality>2.8669112361967564e-03</quality>
              <le>2.3853175640106201e+00</le></_></splits></_>
        <_>
          <depth>8</depth>
          <value>1.</value></_>
        <_>
          <depth>8</depth>
          <value>-3.5192150198585176e-01</value></_>
        <_>
          <depth>5</depth>
          <value>-3.4739737698289608e-01</value>
          <splits>
            <_><var>2</var>
              <quality>1.3347323052585125e-02</quality>
              <le>1.5000000000000000e+00</le></_></splits></_>
        <_>
          <depth>6</depth>
          <value>-4.6129871532730160e-01</value>
          <splits>
            <_><var>0</var>
              <quality>1.6795663163065910e-02</quality>
              <le>1.6795914173126221e+00</le></_></splits></_>
        <_>
          <depth>7</depth>
          <value>-6.4249702454668611e-01</value>
          <splits>
            <_><var>1</var>
              <quality>1.6909398138523102e-02</quality>
              <le>9.1770999133586884e-02</le></_></splits></_>
        <_>
          <depth>8</depth>
          <value>-4.1508808853379203e-01</value></_>
        <_>
          <depth>8</depth>
          <value>-7.1118417247908683e-01</value></_>
        <_>
          <depth>7</depth>
          <value>-1.4833067520719459e-01</value>
          <splits>
            <_><var>0</var>
              <quality>1.7439853399991989e-03</quality>
              <le>1.7980074882507324e+00</le></_></splits></_>
        <_>
          <depth>8</depth>
          <value>4.1930566623259613e-01</value></_>
        <_>
          <depth>8</depth>
          <value>-2.4402052038501013e-01</value></_>
        <_>
          <depth>6</depth>
          <value>7.1123382236463098e-02</value>
          <splits>
            <_><var>0</var>
              <quality>1.0320715373381972e-03</quality>
              <le>1.0101624727249146e+00</le></_></splits></_>
        <_>
          <depth>7</depth>
          <value>8.9090876848309464e-01</value></_>
        <_>
          <depth>7</depth>
          <value>3.0657758674478681e-03</value>
          <splits>
            <_><var>0</var>
              <quality>1.6657992964610457e-03</quality>
              <le>1.0829520225524902e+00</le></_></splits></_>
        <_>
          <depth>8</depth>
          <value>-8.4972891390419636e-01</value></_>
        <_>
          <depth>8</depth>
          <value>1.2778543661192962e-01</value></_>
        <_>
          <depth>4</depth>
          <value>1.5922898182018536e-01</value>
          <splits>
            <_><var>1</var>
              <quality>3.1996853649616241e-03</quality>
              <le>1.4929850399494171e-01</le></_></splits></_>
        <_>
          <depth>5</depth>
          <value>2.6503123109547055e-01</value>
          <splits>
            <_><var>1</var>
              <quality>2.5116889737546444e-03</quality>
              <le>1.0622300207614899e-01</le></_></splits></_>
        <_>
          <depth>6</depth>
          <value>5.8024019410693095e-01</value>
          <splits>
            <_><var>1</var>
              <quality>2.8419771697372198e-03</quality>
              <le>8.6351498961448669e-02</le></_></splits></_>
        <_>
          <depth>7</depth>
          <value>-2.9231513486963184e-01</value></_>
        <_>
          <depth>7</depth>
          <value>6.4769818285942071e-01</value>
          <splits>
            <_><var>0</var>
              <quality>3.0816984362900257e-03</quality>
              <le>3.3958334922790527e+00</le></_></splits></_>
        <_>
          <depth>8</depth>
          <value>1.</value></_>
        <_>
          <depth>8</depth>
          <value>5.2692312026583144e-01</value></_>
        <_>
          <depth>6</depth>
          <value>8.5653755031551829e-02</value>
          <splits>
            <_><var>1</var>
              <quality>1.3156470376998186e-03</quality>
              <le>1.2616249918937683e-01</le></_></splits></_>
        <_>
          <depth>7</depth>
          <value>-2.3244521884378472e-01</value>
          <splits>
            <_><var>1</var>
              <quality>8.6399371502920985e-04</quality>
              <le>1.2518049776554108e-01</le></_></splits></_>
        <_>
          <depth>8</depth>
          <value>-1.2055399259504751e-01</value></_>
        <_>
          <depth>8</depth>
          <value>-1.</value></_>
        <_>
          <depth>7</depth>
          <value>3.9016876050180677e-01</value>
          <splits>
            <_><var>0</var>
              <quality>1.5224415110424161e-03</quality>
              <le>3.1414389610290527e+00</le></_></splits></_>
        <_>
          <depth>8</depth>
          <value>-1.</value></_>
        <_>
          <depth>8</depth>
          <value>4.5043575856084206e-01</value></_>
        <_>
          <depth>5</depth>
          <value>-1.</value></_>
        <_>
          <depth>3</depth>
          <value>-1.</value></_></nodes></_>
    <_>
      <nodes>
        <_>
          <depth>0</depth>
          <value>-7.6855718987911825e-02</value>
          <splits>
            <_><var>1</var>
              <quality>1.5241372399032116e-02</quality>
              <le>2.2222550213336945e-01</le></_></splits></_>
        <_>
          <depth>1</depth>
          <value>-6.6679199390977148e-02</value>
          <splits>
            <_><var>2</var>
              <quality>8.6591718718409538e-03</quality>
              <le>1.5000000000000000e+00</le></_></splits></_>
        <_>
          <depth>2</depth>
          <value>-9.6602847932479835e-02</value>
          <splits>
            <_><var>3</var>
              <quality>1.2024096213281155e-02</quality>
              <le>3.</le></_></splits></_>
        <_>
          <depth>3</depth>
          <value>-4.2435337585899145e-02</value>
          <splits>
            <_><var>0</var>
              <quality>1.8253043526783586e-03</quality>
              <le>4.4246548414230347e-01</le></_></splits></_>
        <_>
          <depth>4</depth>
          <value>-1.6767990471973740e-01</value>
          <splits>
            <_><var>1</var>
              <quality>2.7062552981078625e-03</quality>
              <le>2.0065000653266907e-01</le></_></splits></_>
        <_>
          <depth>5</depth>
          <value>-1.2508722801592090e-01</value>
          <splits>
            <_><var>0</var>
              <quality>1.4229475054889917e-03</quality>
              <le>4.1548448801040649e-01</le></_></splits></_>
        <_>
          <depth>6</depth>
          <value>-7.4162721207544122e-02</value>
          <splits>
            <_><var>0</var>
              <quality>9.1333105228841305e-04</quality>
              <le>4.1027498245239258e-01</le></_></splits></_>
        <_>
          <depth>7</depth>
          <value>-1.1439309500099726e-01</value>
          <splits>
            <_><var>0</var>
              <quality>9.1170967789366841e-04</quality>
              <le>4.0758699178695679e-01</le></_></splits></_>
        <_>
          <depth>8</depth>
          <value>-9.3086624772733856e-02</value></_>
        <_>
          <depth>8</depth>
          <value>-6.7154940015446907e-01</value></_>
        <_>
          <depth>7</depth>
          <value>3.5760372403174329e-01</value>
          <splits>
            <_><var>1</var>
              <quality>6.9798971526324749e-04</quality>
              <le>1.3005399703979492e-01</le></_></splits></_>
        <_>
          <depth>8</depth>
          <value>1.</value></_>
        <_>
          <depth>8</depth>
          <value>2.3746379301518136e-01</value></_>
        <_>
          <depth>6</depth>
          <value>-4.1207475897648571e-01</value>
          <splits>
            <_><var>1</var>
              <quality>2.1400500554591417e-03</quality>
              <le>1.7511200904846191e-01</le></_></splits></_>
        <_>
          <depth>7</depth>
          <value>-7.3168130569940537e-01</value>
          <splits>
            <_><var>2</var>
              <quality>2.6463579852133989e-03</quality>
              <le>5.0000000000000000e-01</le></_></splits></_>
        <_>
          <depth>8</depth>
          <value>-1.</value></_>
        <_>
          <depth>8</depth>
          <value>-2.5962763608111944e-01</value></_>
        <_>
          <depth>7</depth>
          <value>1.5317264739773886e-03</value>
          <splits>
            <_><var>0</var>
              <quality>8.7971688481047750e-04</quality>
              <le>4.2340299487113953e-01</le></_></splits></_>
        <_>
          <depth>8</depth>
          <value>-6.4616752475821460e-01</value></_>
        <_>
          <depth>8</depth>
          <value>4.4123435232495634e-01</value></_>
        <_>
          <depth>5</depth>
          <value>-7.6949051885232544e-01</value>
          <splits>
            <_><var>0</var>
              <quality>2.1920246072113514e-03</quality>
              <le>3.9099347591400146e-01</le></_></splits></_>
        <_>
          <depth>6</depth>
          <value>-4.8073567856418792e-01</value>
          <splits>
            <_><var>0</var>
              <quality>1.0499963536858559e-03</quality>
              <le>3.8757550716400146e-01</le></_></splits></_>
        <_>
          <depth>7</depth>
          <value>-1.</value></_>
        <_>
          <depth>7</depth>
          <value>4.4295338163407022e-01</value></_>
        <_>
          <depth>6</depth>
          <value>-1.</value></_>
        <_>
          <depth>4</depth>
          <value>-2.9257889422422412e-02</value>
          <splits>
            <_><var>0</var>
              <quality>1.1246356880292296e-03</quality>
              <le>5.1234745979309082e-01</le></_></splits></_>
        <_>
          <depth>5</depth>
          <value>1.1998856309906142e-01</value>
          <splits>
            <_><var>0</var>
              <quality>1.8976124702021480e-03</quality>
              <le>5.0491297245025635e-01</le></_></splits></_>
        <_>
          <depth>6</depth>
          <value>-6.1476388927159988e-03</value>
          <splits>
            <_><var>0</var>
              <quality>1.6470993869006634e-03</quality>
              <le>4.9137651920318604e-01</le></_></splits></_>
        <_>
          <depth>7</depth>
          <value>9.4443012468690024e-02</value>
          <splits>
            <_><var>1</var>
              <quality>1.3226923765614629e-03</quality>
              <le>9.1641500592231750e-02</le></_></splits></_>
        <_>
          <depth>8</depth>
          <value>8.3109611561482821e-01</value></_>
        <_>
          <depth>8</depth>
          <value>1.6318743280500179e-02</value></_>
        <_>
          <depth>7</depth>
          <value>-7.2799434022761200e-01</value>
          <splits>
            <_><var>1</var>
              <quality>1.6708804760128260e-03</quality>
              <le>1.7999801039695740e-01</le></_></splits></_>
        <_>
          <depth>8</depth>
          <value>-1.</value></_>
        <_>
          <depth>8</depth>
          <value>-4.6115078936461262e-01</value></_>
        <_>
          <depth>6</depth>
          <value>5.0596540740707874e-01</value>
          <splits>
            <_><var>1</var>
              <quality>2.2099497728049755e-03</quality>
              <le>1.1051499843597412e-01</le></_></splits></_>
        <_>
          <depth>7</depth>
          <value>-1.</value></_>
        <_>
          <depth>7</depth>
          <value>5.3403453643261045e-01</value>
          <splits>
            <_><var>1</var>
              <quality>2.4199744220823050e-03</quality>
              <le>1.1693000048398972e-01</le></_></splits></_>
        <_>
          <depth>8</depth>
          <value>9.2224259376369344e-01</value></_>
        <_>
          <depth>8</depth>
          <value>4.1164253530395922e-01</value></_>
        <_>
          <depth>5</depth>
          <value>-3.9268751536776662e-02</value>
          <splits>
            <_><var>0</var>
              <quality>1.8486315384507179e-03</quality>
              <le>5.4324549436569214e-01</le></_></splits></_>
        <_>
          <depth>6</depth>
          <value>-3.2141883883558853e-01</value>
          <splits>
            <_><var>1</var>
              <quality>5.3186975419521332e-03</quality>
              <le>1.7312850058078766e-01</le></_></splits></_>
        <_>
          <depth>7</depth>
          <value>-9.4662008011032384e-01</value>
          <splits>
            <_><var>1</var>
              <quality>5.8077843859791756e-03</quality>
              <le>7.1826502680778503e-02</le></_></splits></_>
        <_>
          <depth>8</depth>
          <value>1.</value></_>
        <_>
          <depth>8</depth>
          <value>-1.</value></_>
        <_>
          <depth>7</depth>
          <value>1.1761150752495939e-01</value>
          <splits>
            <_><var>1</var>
              <quality>1.1400127550587058e-03</quality>
              <le>1.9992999732494354e-01</le></_></splits></_>
        <_>
          <depth>8</depth>
          <value>2.2856876936083986e-01</value></_>
        <_>
          <depth>8</depth>
          <value>-1.</value></_>
        <_>
          <depth>6</depth>
          <value>-3.0124334158227566e-02</value>
          <splits>
            <_><var>0</var>
              <quality>1.3772052479907870e-03</quality>
              <le>5.5036246776580811e-01</le></_></splits></_>
        <_>
          <depth>7</depth>
          <value>3.3107200738588588e-01</value>
          <splits>
            <_><var>1</var>
              <quality>1.6439143801108003e-03</quality>
              <le>1.1404900252819061e-01</le></_></splits></_>
        <_>
          <depth>8</depth>
          <value>-1.</value></_>
        <_>
          <depth>8</depth>
          <value>4.1547932393995707e-01</value></_>
        <_>
          <depth>7</depth>
          <value>-3.6389584726821973e-02</value>
          <splits>
            <_><var>0</var>
              <quality>1.3079070486128330e-03</quality>
              <le>5.8523601293563843e-01</le></_></splits></_>
        <_>
          <depth>8</depth>
          <value>-2.6086827448663302e-01</value></_>
        <_>
          <depth>8</depth>
          <value>-2.8642947044378621e-02</value></_>
        <_>
          <depth>3</depth>
          <value>-1.9540157863092694e-01</value>
          <splits>
            <_><var>0</var>
              <quality>1.7147772014141083e-02</quality>
              <le>1.1344490051269531e+00</le></_></splits></_>
        <_>
          <depth>4</depth>
          <value>-2.9638984030743143e-01</value>
          <splits>
            <_><var>1</var>
              <quality>2.3575840517878532e-02</quality>
              <le>1.0137249529361725e-01</le></_></splits></_>
        <_>
          <depth>5</depth>
          <value>-1.9421546900325798e-01</value>
          <splits>
            <_><var>0</var>
              <quality>8.4112128242850304e-03</quality>
              <le>4.0551048517227173e-01</le></_></splits></_>
        <_>
          <depth>6</depth>
          <value>-8.5559668808506406e-01</value>
          <splits>
            <_><var>1</var>
              <quality>5.1035699434578419e-03</quality>
              <le>7.0460498332977295e-02</le></_></splits></_>
        <_>
          <depth>7</depth>
          <value>-2.0669022633837564e-01</value></_>
        <_>
          <depth>7</depth>
          <value>-1.</value></_>
        <_>
          <depth>6</depth>
          <value>-1.6543284521787119e-01</value>
          <splits>
            <_><var>0</var>
              <quality>6.3413027673959732e-03</quality>
              <le>6.4326751232147217e-01</le></_></splits></_>
        <_>
          <depth>7</depth>
          <value>8.2921106611677495e-02</value>
          <splits>
            <_><var>0</var>
              <quality>2.0990627817809582e-03</quality>
