<?xml version="1.0"?>
<opencv_storage>
<opencv_ml_boost>
  <format>3</format>
  <is_classifier>1</is_classifier>
  <var_all>9</var_all>
  <var_count>8</var_count>
  <ord_var_count>7</ord_var_count>
  <cat_var_count>2</cat_var_count>
  <training_params>
    <boosting_type>GentleAdaboost</boosting_type>
    <use_surrogates>0</use_surrogates>
    <max_categories>10</max_categories>
    <regression_accuracy>9.9999997764825821e-03</regression_accuracy>
    <max_depth>8</max_depth>
    <min_sample_count>10</min_sample_count>
    <cross_validation_folds>0</cross_validation_folds>
    <weight_trimming_rate>0.</weight_trimming_rate></training_params>
  <global_var_idx>1</global_var_idx>
  <var_idx>
    0 1 2 3 4 5 6 7</var_idx>
  <var_type>
    0 0 0 0 0 0 0 1 1</var_type>
  <cat_ofs>
    0 0 0 0 0 0 0 0 0 0 0 0 0 0 0 1</cat_ofs>
  <cat_map>
    0</cat_map>
  <class_labels>
    0 1</class_labels>
  <missing_subst>
    0. 0. 0. 0. 0. 0. 0. -1. 0.</missing_subst>
  <ntrees>70</ntrees>
  <trees>
    <_>
      <nodes>
        <_>
          <depth>0</depth>
          <value>-3.9810551243240772e-01</value>
          <splits>
            <_><var>6</var>
              <quality>3.0129167437553406e-01</quality>
              <le>6.5000000000000000e+00</le></_></splits></_>
        <_>
          <depth>1</depth>
          <value>-6.0047401388165533e-01</value>
          <splits>
            <_><var>0</var>
              <quality>3.0781435966491699e-01</quality>
              <le>9.9186897277832031e-01</le></_></splits></_>
        <_>
          <depth>2</depth>
          <value>-7.5003448751552027e-01</value>
          <splits>
            <_><var>1</var>
              <quality>2.8094467520713806e-01</quality>
              <le>1.3604149222373962e-01</le></_></splits></_>
        <_>
          <depth>3</depth>
          <value>-9.1403216860787639e-01</value>
          <splits>
            <_><var>6</var>
              <quality>1.9937288761138916e-01</quality>
              <le>4.5000000000000000e+00</le></_></splits></_>
        <_>
          <depth>4</depth>
          <value>-9.4346978557504924e-01</value>
          <splits>
            <_><var>2</var>
              <quality>1.8084722757339478e-01</quality>
              <le>1.5000000000000000e+00</le></_></splits></_>
        <_>
          <depth>5</depth>
          <value>-9.6383763837638414e-01</value>
          <splits>
            <_><var>5</var>
              <quality>1.6597357392311096e-01</quality>
              <le>7.0187840461730957e+00</le></_></splits></_>
        <_>
          <depth>6</depth>
          <value>-9.6597633136094707e-01</value>
          <splits>
            <_><var>1</var>
              <quality>1.6622790694236755e-01</quality>
              <le>5.6294500827789307e-02</le></_></splits></_>
        <_>
          <depth>7</depth>
          <value>1.</value></_>
        <_>
          <depth>7</depth>
          <value>-9.6670366259711460e-01</value>
          <splits>
            <_><var>6</var>
              <quality>1.6627886891365051e-01</quality>
              <le>2.5000000000000000e+00</le></_></splits></_>
        <_>
          <depth>8</depth>
          <value>-9.8765432098765449e-01</value></_>
        <_>
          <depth>8</depth>
          <value>-9.3536472760849643e-01</value></_>
        <_>
          <depth>6</depth>
          <value>0.</value></_>
        <_>
          <depth>5</depth>
          <value>-7.9347826086956497e-01</value>
          <splits>
            <_><var>5</var>
              <quality>1.5834722667932510e-02</quality>
              <le>1.0266194343566895e+00</le></_></splits></_>
        <_>
          <depth>6</depth>
          <value>-8.8847583643122663e-01</value>
          <splits>
            <_><var>3</var>
              <quality>1.4396421611309052e-02</quality>
              <le>7.</le></_></splits></_>
        <_>
          <depth>7</depth>
          <value>-9.1570881226053624e-01</value>
          <splits>
            <_><var>0</var>
              <quality>1.4593587256968021e-02</quality>
              <le>8.8396453857421875e-01</le></_></splits></_>
        <_>
          <depth>8</depth>
          <value>-9.6330275229357787e-01</value></_>
        <_>
          <depth>8</depth>
          <value>-6.7441860465116277e-01</value></_>
        <_>
          <depth>7</depth>
          <value>0.</value></_>
        <_>
          <depth>6</depth>
          <value>-5.3535353535353392e-01</value>
          <splits>
            <_><var>0</var>
              <quality>2.3578768596053123e-03</quality>
              <le>5.7346898317337036e-01</le></_></splits></_>
        <_>
          <depth>7</depth>
          <value>3.3333333333333331e-01</value></_>
        <_>
          <depth>7</depth>
          <value>-6.2222222222222090e-01</value>
          <splits>
            <_><var>0</var>
              <quality>2.5427006185054779e-03</quality>
              <le>9.4077146053314209e-01</le></_></splits></_>
        <_>
          <depth>8</depth>
          <value>-7.1052631578947267e-01</value></_>
        <_>
          <depth>8</depth>
          <value>-1.4285714285714285e-01</value></_>
        <_>
          <depth>4</depth>
          <value>-7.4242424242424609e-01</value>
          <splits>
            <_><var>4</var>
              <quality>2.0438160747289658e-02</quality>
              <le>2.4715000763535500e-03</le></_></splits></_>
        <_>
          <depth>5</depth>
          <value>-8.4766584766584752e-01</value>
          <splits>
            <_><var>1</var>
              <quality>2.0018123090267181e-02</quality>
              <le>1.2827849388122559e-01</le></_></splits></_>
        <_>
          <depth>6</depth>
          <value>-8.9839572192513362e-01</value>
          <splits>
            <_><var>5</var>
              <quality>2.0158480852842331e-02</quality>
              <le>4.0888414382934570e+00</le></_></splits></_>
        <_>
          <depth>7</depth>
          <value>-9.0835579514824782e-01</value>
          <splits>
            <_><var>2</var>
              <quality>2.0376764237880707e-02</quality>
              <le>5.5000000000000000e+00</le></_></splits></_>
        <_>
          <depth>8</depth>
          <value>-9.1351351351351340e-01</value></_>
        <_>
          <depth>8</depth>
          <value>1.</value></_>
        <_>
          <depth>7</depth>
          <value>3.3333333333333331e-01</value></_>
        <_>
          <depth>6</depth>
          <value>-2.7272727272727271e-01</value>
          <splits>
            <_><var>5</var>
              <quality>5.7623995235189795e-04</quality>
              <le>1.8633170127868652e+00</le></_></splits></_>
        <_>
          <depth>7</depth>
          <value>-5.2000000000000002e-01</value>
          <splits>
            <_><var>0</var>
              <quality>7.2567729512229562e-04</quality>
              <le>2.1604949235916138e-01</le></_></splits></_>
        <_>
          <depth>8</depth>
          <value>1.4285714285714285e-01</value></_>
        <_>
          <depth>8</depth>
          <value>-7.7777777777777779e-01</value></_>
        <_>
          <depth>7</depth>
          <value>5.0000000000000000e-01</value></_>
        <_>
          <depth>5</depth>
          <value>-3.8842975206611441e-01</value>
          <splits>
            <_><var>2</var>
              <quality>1.7734583234414458e-03</quality>
              <le>2.5000000000000000e+00</le></_></splits></_>
        <_>
          <depth>6</depth>
          <value>-4.8148148148148007e-01</value>
          <splits>
            <_><var>5</var>
              <quality>2.4363265838474035e-03</quality>
              <le>1.5196216106414795e+00</le></_></splits></_>
        <_>
          <depth>7</depth>
          <value>-8.1481481481481477e-01</value>
          <splits>
            <_><var>1</var>
              <quality>2.8496249578893185e-03</quality>
              <le>7.3986500501632690e-02</le></_></splits></_>
        <_>
          <depth>8</depth>
          <value>5.0000000000000000e-01</value></_>
        <_>
          <depth>8</depth>
          <value>-9.2000000000000004e-01</value></_>
        <_>
          <depth>7</depth>
          <value>-1.4814814814814814e-01</value>
          <splits>
            <_><var>3</var>
              <quality>7.6334661571308970e-04</quality>
              <le>3.</le></_></splits></_>
        <_>
          <depth>8</depth>
          <value>3.0769230769230771e-01</value></_>
        <_>
          <depth>8</depth>
          <value>-5.7142857142857140e-01</value></_>
        <_>
          <depth>6</depth>
          <value>3.8461538461538464e-01</value>
          <splits>
            <_><var>5</var>
              <quality>2.7043223963119090e-04</quality>
              <le>1.3086534738540649e+00</le></_></splits></_>
        <_>
          <depth>7</depth>
          <value>1.</value></_>
        <_>
          <depth>7</depth>
          <value>1.1111111111111110e-01</value></_>
        <_>
          <depth>3</depth>
          <value>-5.8770244304145214e-01</value>
          <splits>
            <_><var>5</var>
              <quality>9.0664595365524292e-02</quality>
              <le>1.0348980426788330e+00</le></_></splits></_>
        <_>
          <depth>4</depth>
          <value>-8.6915887850467588e-01</value>
          <splits>
            <_><var>5</var>
              <quality>5.4041016846895218e-02</quality>
              <le>9.5445150136947632e-01</le></_></splits></_>
        <_>
          <depth>5</depth>
          <value>-2.2580645161290322e-01</value>
          <splits>
            <_><var>1</var>
              <quality>1.8826924497261643e-04</quality>
              <le>2.0116949081420898e-01</le></_></splits></_>
        <_>
          <depth>6</depth>
          <value>-1.</value></_>
        <_>
          <depth>6</depth>
          <value>-1.7241379310344829e-01</value>
          <splits>
            <_><var>1</var>
              <quality>1.0963469685520977e-04</quality>
              <le>2.1000100672245026e-01</le></_></splits></_>
        <_>
          <depth>7</depth>
          <value>0.</value>
          <splits>
            <_><var>0</var>
              <quality>2.7907013645744883e-05</quality>
              <le>6.7500001192092896e-01</le></_></splits></_>
        <_>
          <depth>8</depth>
          <value>3.3333333333333331e-01</value></_>
        <_>
          <depth>8</depth>
          <value>-9.0909090909090912e-02</value></_>
        <_>
          <depth>7</depth>
          <value>-3.3333333333333331e-01</value>
          <splits>
            <_><var>0</var>
              <quality>1.4095890219323337e-04</quality>
              <le>4.6428549289703369e-01</le></_></splits></_>
        <_>
          <depth>8</depth>
          <value>-1.</value></_>
        <_>
          <depth>8</depth>
          <value>-2.8571428571428570e-01</value></_>
        <_>
          <depth>5</depth>
          <value>-8.8835418671800070e-01</value>
          <splits>
            <_><var>6</var>
              <quality>5.4413404315710068e-02</quality>
              <le>5.0000000000000000e-01</le></_></splits></_>
        <_>
          <depth>6</depth>
          <value>-9.0974358974359204e-01</value>
          <splits>
            <_><var>5</var>
              <quality>5.3411934524774551e-02</quality>
              <le>1.0289909839630127e+00</le></_></splits></_>
        <_>
          <depth>7</depth>
          <value>-9.3676814988290580e-01</value>
          <splits>
            <_><var>0</var>
              <quality>4.9439560621976852e-02</quality>
              <le>7.4734050035476685e-01</le></_></splits></_>
        <_>
          <depth>8</depth>
          <value>-9.7975708502024395e-01</value></_>
        <_>
          <depth>8</depth>
          <value>-8.7777777777777766e-01</value></_>
        <_>
          <depth>7</depth>
          <value>-7.1900826446280897e-01</value>
          <splits>
            <_><var>5</var>
              <quality>4.3108360841870308e-03</quality>
              <le>1.0290529727935791e+00</le></_></splits></_>
        <_>
          <depth>8</depth>
          <value>1.</value></_>
        <_>
          <depth>8</depth>
          <value>-7.3333333333333250e-01</value></_>
        <_>
          <depth>6</depth>
          <value>-5.6249999999999978e-01</value>
          <splits>
            <_><var>5</var>
              <quality>1.8428948242217302e-03</quality>
              <le>1.0014925003051758e+00</le></_></splits></_>
        <_>
          <depth>7</depth>
          <value>-2.3529411764705882e-01</value>
          <splits>
            <_><var>1</var>
              <quality>3.4931884147226810e-04</quality>
              <le>2.1687400341033936e-01</le></_></splits></_>
        <_>
          <depth>8</depth>
          <value>-1.0344827586206896e-01</value></_>
        <_>
          <depth>8</depth>
          <value>-1.</value></_>
        <_>
          <depth>7</depth>
          <value>-9.3333333333333335e-01</value>
          <splits>
            <_><var>1</var>
              <quality>1.7980090342462063e-03</quality>
              <le>2.2066549956798553e-01</le></_></splits></_>
        <_>
          <depth>8</depth>
          <value>-1.</value></_>
        <_>
          <depth>8</depth>
          <value>-3.3333333333333331e-01</value></_>
        <_>
          <depth>4</depth>
          <value>-4.7065682083171900e-01</value>
          <splits>
            <_><var>1</var>
              <quality>3.9734840393066406e-02</quality>
              <le>1.7050549387931824e-01</le></_></splits></_>
        <_>
          <depth>5</depth>
          <value>-5.9367194004996671e-01</value>
          <splits>
            <_><var>6</var>
              <quality>3.0570743605494499e-02</quality>
              <le>4.5000000000000000e+00</le></_></splits></_>
        <_>
          <depth>6</depth>
          <value>-6.8795811518325412e-01</value>
          <splits>
            <_><var>5</var>
              <quality>3.0829776078462601e-02</quality>
              <le>2.2466819286346436e+00</le></_></splits></_>
        <_>
          <depth>7</depth>
          <value>-7.1335504885994250e-01</value>
          <splits>
            <_><var>1</var>
              <quality>3.1336497515439987e-02</quality>
              <le>1.5019300580024719e-01</le></_></splits></_>
        <_>
          <depth>8</depth>
          <value>-8.2198952879581133e-01</value></_>
        <_>
          <depth>8</depth>
          <value>-6.3636363636364002e-01</value></_>
        <_>
          <depth>7</depth>
          <value>0.</value>
          <splits>
            <_><var>1</var>
              <quality>3.8561169640161097e-04</quality>
              <le>1.4329850673675537e-01</le></_></splits></_>
        <_>
          <depth>8</depth>
          <value>-1.</value></_>
        <_>
          <depth>8</depth>
          <value>1.7241379310344829e-01</value></_>
        <_>
          <depth>6</depth>
          <value>-2.2764227642276311e-01</value>
          <splits>
            <_><var>5</var>
              <quality>1.8520845333114266e-03</quality>
              <le>1.6739439964294434e+00</le></_></splits></_>
        <_>
          <depth>7</depth>
          <value>-3.6507936507936373e-01</value>
          <splits>
            <_><var>0</var>
              <quality>2.0306061487644911e-03</quality>
              <le>3.7797600030899048e-01</le></_></splits></_>
        <_>
          <depth>8</depth>
          <value>-5.6962025316455611e-01</value></_>
        <_>
          <depth>8</depth>
          <value>-2.1818181818181753e-01</value></_>
        <_>
          <depth>7</depth>
          <value>2.2807017543859648e-01</value>
          <splits>
            <_><var>0</var>
              <quality>3.6365623236633837e-04</quality>
              <le>2.6136350631713867e-01</le></_></splits></_>
        <_>
          <depth>8</depth>
          <value>1.</value></_>
        <_>
          <depth>8</depth>
          <value>1.6981132075471697e-01</value></_>
        <_>
          <depth>5</depth>
          <value>-3.6297376093295608e-01</value>
          <splits>
            <_><var>0</var>
              <quality>1.2962791137397289e-02</quality>
              <le>3.8935950398445129e-01</le></_></splits></_>
        <_>
          <depth>6</depth>
          <value>-6.5476190476190399e-01</value>
          <splits>
            <_><var>1</var>
              <quality>5.1084337756037712e-03</quality>
              <le>1.8806000053882599e-01</le></_></splits></_>
        <_>
          <depth>7</depth>
          <value>-5.3043478260869403e-01</value>
          <splits>
            <_><var>0</var>
              <quality>2.3393360897898674e-03</quality>
              <le>3.0901849269866943e-01</le></_></splits></_>
        <_>
          <depth>8</depth>
          <value>-7.7777777777777779e-01</value></_>
        <_>
          <depth>8</depth>
          <value>-4.1772151898734111e-01</value></_>
        <_>
          <depth>7</depth>
          <value>-9.2452830188679247e-01</value>
          <splits>
            <_><var>6</var>
              <quality>3.0220481567084789e-03</quality>
              <le>1.</le></_></splits></_>
        <_>
          <depth>8</depth>
          <value>-7.6470588235294112e-01</value></_>
        <_>
          <depth>8</depth>
          <value>-1.</value></_>
        <_>
          <depth>6</depth>
          <value>-3.2225913621263463e-01</value>
          <splits>
            <_><var>6</var>
              <quality>8.6890384554862976e-03</quality>
              <le>4.5000000000000000e+00</le></_></splits></_>
        <_>
          <depth>7</depth>
          <value>-3.4542157751587593e-01</value>
          <splits>
            <_><var>1</var>
              <quality>8.9918021112680435e-03</quality>
              <le>2.0937949419021606e-01</le></_></splits></_>
        <_>
          <depth>8</depth>
          <value>-3.1612903225807232e-01</value></_>
        <_>
          <depth>8</depth>
          <value>-5.0289017341040354e-01</value></_>
        <_>
          <depth>7</depth>
          <value>-6.9306930693069119e-02</value>
          <splits>
            <_><var>4</var>
              <quality>4.1555086500011384e-04</quality>
              <le>1.5104999765753746e-03</le></_></splits></_>
        <_>
          <depth>8</depth>
          <value>-1.3978494623655882e-01</value></_>
        <_>
          <depth>8</depth>
          <value>7.5000000000000000e-01</value></_>
        <_>
          <depth>2</depth>
          <value>-3.6297918948521701e-01</value>
          <splits>
            <_><var>1</var>
              <quality>5.8676097542047501e-02</quality>
              <le>7.6269000768661499e-02</le></_></splits></_>
        <_>
          <depth>3</depth>
          <value>4.8648648648648596e-01</value>
          <splits>
            <_><var>4</var>
              <quality>1.3117273338139057e-02</quality>
              <le>5.3349998779594898e-04</le></_></splits></_>
        <_>
          <depth>4</depth>
          <value>-4.6236559139784839e-01</value>
          <splits>
            <_><var>0</var>
              <quality>3.1994709279388189e-03</quality>
              <le>1.3515825271606445e+00</le></_></splits></_>
        <_>
          <depth>5</depth>
          <value>-7.5342465753424570e-01</value>
          <splits>
            <_><var>4</var>
              <quality>3.0510798096656799e-03</quality>
              <le>5.1999999413965270e-05</le></_></splits></_>
        <_>
          <depth>6</depth>
          <value>-8.6885245901639330e-01</value>
          <splits>
            <_><var>1</var>
              <quality>3.2627286855131388e-03</quality>
              <le>7.6062500476837158e-02</le></_></splits></_>
        <_>
          <depth>7</depth>
          <value>-9.0000000000000002e-01</value>
          <splits>
            <_><var>0</var>
              <quality>3.3377674408257008e-03</quality>
              <le>1.0683355331420898e+00</le></_></splits></_>
        <_>
          <depth>8</depth>
          <value>-3.3333333333333331e-01</value></_>
        <_>
          <depth>8</depth>
          <value>-9.6296296296296291e-01</value></_>
        <_>
          <depth>7</depth>
          <value>1.</value></_>
        <_>
          <depth>6</depth>
          <value>-1.6666666666666666e-01</value>
          <splits>
            <_><var>0</var>
              <quality>2.9601369169540703e-04</quality>
              <le>1.0822975635528564e+00</le></_></splits></_>
        <_>
          <depth>7</depth>
          <value>-1.</value></_>
        <_>
          <depth>7</depth>
          <value>2.5000000000000000e-01</value></_>
        <_>
          <depth>5</depth>
          <value>5.9999999999999998e-01</value>
          <splits>
            <_><var>5</var>
              <quality>8.4784167120233178e-04</quality>
              <le>6.5203123092651367e+00</le></_></splits></_>
        <_>
          <depth>6</depth>
          <value>7.7777777777777779e-01</value>
          <splits>
            <_><var>3</var>
              <quality>8.0581504153087735e-04</quality>
              <le>7.</le></_></splits></_>
        <_>
          <depth>7</depth>
          <value>8.7500000000000000e-01</value>
          <splits>
            <_><var>0</var>
              <quality>8.2695885794237256e-04</quality>
              <le>1.7053005695343018e+00</le></_></splits></_>
        <_>
          <depth>8</depth>
          <value>7.1428571428571430e-01</value></_>
        <_>
          <depth>8</depth>
          <value>1.</value></_>
        <_>
          <depth>7</depth>
          <value>0.</value></_>
        <_>
          <depth>6</depth>
          <value>-1.</value></_>
        <_>
          <depth>4</depth>
          <value>8.0505415162454852e-01</value>
          <splits>
            <_><var>0</var>
              <quality>1.3103311881422997e-02</quality>
              <le>1.2187426090240479e+00</le></_></splits></_>
        <_>
          <depth>5</depth>
          <value>2.0000000000000001e-01</value>
          <splits>
            <_><var>4</var>
              <quality>1.0400480823591352e-03</quality>
              <le>1.2090830802917480e+00</le></_></splits></_>
        <_>
          <depth>6</depth>
          <value>4.5945945945945948e-01</value>
          <splits>
            <_><var>1</var>
              <quality>1.1418875074014068e-03</quality>
              <le>7.0537000894546509e-02</le></_></splits></_>
        <_>
          <depth>7</depth>
          <value>8.3333333333333337e-01</value>
          <splits>
            <_><var>5</var>
              <quality>1.3270565541461110e-03</quality>
              <le>4.7728614807128906e+00</le></_></splits></_>
        <_>
          <depth>8</depth>
          <value>9.1304347826086951e-01</value></_>
        <_>
          <depth>8</depth>
          <value>-1.</value></_>
        <_>
          <depth>7</depth>
          <value>-2.3076923076923078e-01</value>
          <splits>
            <_><var>1</var>
              <quality>2.8106349054723978e-04</quality>
              <le>7.5043998658657074e-02</le></_></splits></_>
        <_>
          <depth>8</depth>
          <value>-4.5454545454545453e-01</value></_>
        <_>
          <depth>8</depth>
          <value>1.</value></_>
        <_>
          <depth>6</depth>
          <value>-1.</value></_>
        <_>
          <depth>5</depth>
          <value>9.2241379310344818e-01</value>
          <splits>
            <_><var>4</var>
              <quality>1.3118456117808819e-02</quality>
              <le>1.2171654701232910e+00</le></_></splits></_>
        <_>
          <depth>6</depth>
          <value>9.4520547945205469e-01</value>
          <splits>
            <_><var>5</var>
              <quality>1.2978283688426018e-02</quality>
              <le>3.0715274810791016e+00</le></_></splits></_>
        <_>
          <depth>7</depth>
          <value>9.7029702970297027e-01</value>
          <splits>
            <_><var>0</var>
              <quality>1.2582930736243725e-02</quality>
              <le>1.3544449806213379e+00</le></_></splits></_>
        <_>
          <depth>8</depth>
          <value>7.8571428571428570e-01</value></_>
        <_>
          <depth>8</depth>
          <value>1.</value></_>
        <_>
          <depth>7</depth>
          <value>6.4705882352941180e-01</value>
          <splits>
            <_><var>5</var>
              <quality>8.7269220966845751e-04</quality>
              <le>3.2280864715576172e+00</le></_></splits></_>
        <_>
          <depth>8</depth>
          <value>-1.</value></_>
        <_>
          <depth>8</depth>
          <value>8.6666666666666670e-01</value></_>
        <_>
          <depth>6</depth>
          <value>5.3846153846153844e-01</value>
          <splits>
            <_><var>4</var>
              <quality>6.1594764702022076e-04</quality>
              <le>1.2327280044555664e+00</le></_></splits></_>
        <_>
          <depth>7</depth>
          <value>-1.</value></_>
        <_>
          <depth>7</depth>
          <value>8.1818181818181823e-01</value>
          <splits>
            <_><var>4</var>
              <quality>5.9202738339081407e-04</quality>
              <le>1.9876616001129150e+00</le></_></splits></_>
        <_>
          <depth>8</depth>
          <value>1.</value></_>
        <_>
          <depth>8</depth>
          <value>0.</value></_>
        <_>
          <depth>3</depth>
          <value>-4.3790226460071840e-01</value>
          <splits>
            <_><var>0</var>
              <quality>5.6144602596759796e-02</quality>
              <le>1.0101104974746704e+00</le></_></splits></_>
        <_>
          <depth>4</depth>
          <value>-1.9599427753934473e-01</value>
          <splits>
            <_><var>1</var>
              <quality>2.9752054251730442e-03</quality>
              <le>1.6462400555610657e-01</le></_></splits></_>
        <_>
          <depth>5</depth>
          <value>-5.1020408163265174e-01</value>
          <splits>
            <_><var>6</var>
              <quality>3.5272499080747366e-03</quality>
              <le>3.5000000000000000e+00</le></_></splits></_>
        <_>
          <depth>6</depth>
          <value>-8.3561643835616350e-01</value>
          <splits>
            <_><var>2</var>
              <quality>3.8088019937276840e-03</quality>
              <le>2.5000000000000000e+00</le></_></splits></_>
        <_>
          <depth>7</depth>
          <value>-8.8732394366197120e-01</value>
          <splits>
            <_><var>1</var>
              <quality>3.7917119916528463e-03</quality>
              <le>1.4993500709533691e-01</le></_></splits></_>
        <_>
          <depth>8</depth>
          <value>-9.6491228070175439e-01</value></_>
        <_>
          <depth>8</depth>
          <value>-5.7142857142857140e-01</value></_>
        <_>
          <depth>7</depth>
          <value>1.</value></_>
        <_>
          <depth>6</depth>
          <value>-1.8918918918918895e-01</value>
          <splits>
            <_><var>2</var>
              <quality>6.7306170240044594e-04</quality>
              <le>1.5000000000000000e+00</le></_></splits></_>
        <_>
          <depth>7</depth>
          <value>-2.7536231884057949e-01</value>
          <splits>
            <_><var>3</var>
              <quality>7.1036320878192782e-04</quality>
              <le>3.</le></_></splits></_>
        <_>
          <depth>8</depth>
          <value>-4.7619047619047616e-02</value></_>
        <_>
          <depth>8</depth>
          <value>-6.2962962962962965e-01</value></_>
        <_>
          <depth>7</depth>
          <value>1.</value></_>
        <_>
          <depth>5</depth>
          <value>-1.1231884057971028e-01</value>
          <splits>
            <_><var>1</var>
              <quality>1.4692422701045871e-03</quality>
              <le>2.0747749507427216e-01</le></_></splits></_>
        <_>
          <depth>6</depth>
          <value>1.7441860465116185e-02</value>
          <splits>
            <_><var>5</var>
              <quality>3.3617459121160209e-04</quality>
              <le>8.4444451332092285e-01</le></_></splits></_>
        <_>
          <depth>7</depth>
          <value>3.4999999999999998e-01</value>
          <splits>
            <_><var>1</var>
              <quality>3.8492714520543814e-04</quality>
              <le>1.9523149728775024e-01</le></_></splits></_>
        <_>
          <depth>8</depth>
          <value>5.2941176470588236e-01</value></_>
        <_>
          <depth>8</depth>
          <value>2.1739130434782608e-01</value></_>
        <_>
          <depth>7</depth>
          <value>-2.6315789473684074e-02</value>
          <splits>
            <_><var>5</var>
              <quality>2.5474955327808857e-04</quality>
              <le>1.3164660930633545e+00</le></_></splits></_>
        <_>
          <depth>8</depth>
          <value>-1.0144927536231836e-01</value></_>
        <_>
          <depth>8</depth>
          <value>1.3402061855670069e-01</value></_>
        <_>
          <depth>6</depth>
          <value>-3.2692307692307565e-01</value>
          <splits>
            <_><var>5</var>
              <quality>1.9683644641190767e-03</quality>
              <le>1.0052264928817749e+00</le></_></splits></_>
        <_>
          <depth>7</depth>
          <value>-1.3461538461538425e-01</value>
          <splits>
            <_><var>1</var>
              <quality>3.3537068520672619e-04</quality>
              <le>2.2175750136375427e-01</le></_></splits></_>
        <_>
          <depth>8</depth>
          <value>6.6666666666666666e-02</value></_>
        <_>
          <depth>8</depth>
          <value>-2.8813559322033899e-01</value></_>
        <_>
          <depth>7</depth>
          <value>-5.1923076923076783e-01</value>
          <splits>
            <_><var>5</var>
              <quality>2.7077777776867151e-03</quality>
              <le>1.0629215240478516e+00</le></_></splits></_>
        <_>
          <depth>8</depth>
          <value>-8.5454545454545450e-01</value></_>
        <_>
          <depth>8</depth>
          <value>-1.4285714285714285e-01</value></_>
        <_>
          <depth>4</depth>
          <value>-4.8627002288329885e-01</value>
          <splits>
            <_><var>0</var>
              <quality>5.6715991348028183e-02</quality>
              <le>1.1615275144577026e+00</le></_></splits></_>
        <_>
          <depth>5</depth>
          <value>-6.9051094890512044e-01</value>
          <splits>
            <_><var>5</var>
              <quality>2.2261450067162514e-02</quality>
              <le>1.0384420156478882e+00</le></_></splits></_>
        <_>
          <depth>6</depth>
          <value>-9.1812865497076002e-01</value>
          <splits>
            <_><var>2</var>
              <quality>9.5644462853670120e-03</quality>
              <le>1.5000000000000000e+00</le></_></splits></_>
        <_>
          <depth>7</depth>
          <value>-9.6850393700787396e-01</value>
          <splits>
            <_><var>1</var>
              <quality>7.8739458695054054e-03</quality>
              <le>2.2724199295043945e-01</le></_></splits></_>
        <_>
          <depth>8</depth>
          <value>-9.8347107438016523e-01</value></_>
        <_>
          <depth>8</depth>
          <value>-6.6666666666666663e-01</value></_>
        <_>
          <depth>7</depth>
          <value>-7.7272727272727271e-01</value>
          <splits>
            <_><var>1</var>
              <quality>2.1613696590065956e-03</quality>
              <le>1.9927299022674561e-01</le></_></splits></_>
        <_>
          <depth>8</depth>
          <value>-8.5714285714285710e-01</value></_>
        <_>
          <depth>8</depth>
          <value>1.</value></_>
        <_>
          <depth>6</depth>
          <value>-6.1478599221790087e-01</value>
          <splits>
            <_><var>5</var>
              <quality>1.3554163277149200e-02</quality>
              <le>1.8667094707489014e+00</le></_></splits></_>
        <_>
          <depth>7</depth>
          <value>-5.1532033426183788e-01</value>
          <splits>
            <_><var>3</var>
              <quality>6.7770238965749741e-03</quality>
              <le>7.</le></_></splits></_>
        <_>
          <depth>8</depth>
          <value>-4.7112462006078959e-01</value></_>
        <_>
          <depth>8</depth>
          <value>-1.</value></_>
        <_>
          <depth>7</depth>
          <value>-8.4516129032258025e-01</value>
          <splits>
            <_><var>4</var>
              <quality>7.9681342467665672e-03</quality>
              <le>3.1125000678002834e-03</le></_></splits></_>
        <_>
          <depth>8</depth>
          <value>-8.8157894736842080e-01</value></_>
        <_>
          <depth>8</depth>
          <value>1.</value></_>
        <_>
          <depth>5</depth>
          <value>-4.3649946638207543e-01</value>
          <splits>
            <_><var>1</var>
              <quality>4.0582317858934402e-02</quality>
              <le>8.8342502713203430e-02</le></_></splits></_>
        <_>
          <depth>6</depth>
          <value>3.0935251798561036e-01</value>
          <splits>
            <_><var>5</var>
              <quality>1.9144833786413074e-03</quality>
              <le>3.0366697311401367e+00</le></_></splits></_>
        <_>
          <depth>7</depth>
          <value>4.8623853211009033e-01</value>
          <splits>
            <_><var>0</var>
              <quality>2.6173593942075968e-03</quality>
              <le>1.3509479761123657e+00</le></_></splits></_>
        <_>
          <depth>8</depth>
          <value>2.4390243902439025e-02</value></_>
        <_>
          <depth>8</depth>
          <value>7.6470588235294057e-01</value></_>
        <_>
          <depth>7</depth>
          <value>-3.3333333333333331e-01</value>
          <splits>
            <_><var>4</var>
              <quality>3.9468490285798907e-04</quality>
              <le>2.0599998533725739e-03</le></_></splits></_>
        <_>
          <depth>8</depth>
          <value>-2.0000000000000001e-01</value></_>
        <_>
          <depth>8</depth>
          <value>-1.</value></_>
        <_>
          <depth>6</depth>
          <value>-4.7529940119760966e-01</value>
          <splits>
            <_><var>6</var>
              <quality>4.1428763419389725e-02</quality>
              <le>4.5000000000000000e+00</le></_></splits></_>
        <_>
          <depth>7</depth>
          <value>-5.2689195621133345e-01</value>
          <splits>
            <_><var>1</var>
              <quality>3.9793692529201508e-02</quality>
              <le>1.4895400404930115e-01</le></_></splits></_>
        <_>
          <depth>8</depth>
          <value>-6.8387096774194367e-01</value></_>
        <_>
          <depth>8</depth>
          <value>-4.6117488183660588e-01</value></_>
        <_>
          <depth>7</depth>
          <value>-2.8546409807355716e-01</value>
          <splits>
            <_><var>0</var>
              <quality>3.6244681105017662e-03</quality>
              <le>1.2116460800170898e+00</le></_></splits></_>
        <_>
          <depth>8</depth>
          <value>2.2580645161290322e-01</value></_>
        <_>
          <depth>8</depth>
          <value>-3.1481481481481627e-01</value></_>
        <_>
          <depth>1</depth>
          <value>3.0755608028335801e-01</value>
          <splits>
            <_><var>1</var>
              <quality>5.3325310349464417e-02</quality>
              <le>1.0260249674320221e-01</le></_></splits></_>
        <_>
          <depth>2</depth>
          <value>6.4255765199161885e-01</value>
          <splits>
            <_><var>4</var>
              <quality>6.0915905982255936e-02</quality>
              <le>4.8949997872114182e-03</le></_></splits></_>
        <_>
          <depth>3</depth>
          <value>2.7022900763359131e-01</value>
          <splits>
            <_><var>0</var>
              <quality>9.4102686271071434e-03</quality>
              <le>1.0615530014038086e+00</le></_></splits></_>
        <_>
          <depth>4</depth>
          <value>-1.5358361774743948e-01</value>
          <splits>
            <_><var>6</var>
              <quality>4.1659269481897354e-03</quality>
              <le>1.0500000000000000e+01</le></_></splits></_>
        <_>
          <depth>5</depth>
          <value>-5.1136363636363524e-01</value>
          <splits>
            <_><var>5</var>
              <quality>4.2107235640287399e-03</quality>
              <le>2.2164826393127441e+00</le></_></splits></_>
        <_>
          <depth>6</depth>
          <value>-8.5365853658536517e-01</value>
          <splits>
            <_><var>1</var>
              <quality>4.2411317117512226e-03</quality>
              <le>1.0125599801540375e-01</le></_></splits></_>
        <_>
          <depth>7</depth>
          <value>-9.2105263157894701e-01</value>
          <splits>
            <_><var>5</var>
              <quality>4.4871289283037186e-03</quality>
              <le>1.2433559894561768e+00</le></_></splits></_>
        <_>
          <depth>8</depth>
          <value>1.</value></_>
        <_>
          <depth>8</depth>
          <value>-9.4666666666666643e-01</value></_>
        <_>
          <depth>7</depth>
          <value>0.</value></_>
        <_>
          <depth>6</depth>
          <value>-2.1276595744680801e-01</value>
          <splits>
            <_><var>6</var>
              <quality>1.1604479514062405e-03</quality>
              <le>8.5000000000000000e+00</le></_></splits></_>
        <_>
          <depth>7</depth>
          <value>-4.8387096774193539e-01</value>
          <splits>
            <_><var>5</var>
              <quality>1.2542209587991238e-03</quality>
              <le>6.1012711524963379e+00</le></_></splits></_>
        <_>
          <depth>8</depth>
          <value>-5.3333333333333333e-01</value></_>
        <_>
          <depth>8</depth>
          <value>1.</value></_>
        <_>
          <depth>7</depth>
          <value>3.1250000000000000e-01</value>
          <splits>
            <_><var>2</var>
              <quality>7.2358897887170315e-04</quality>
              <le>5.0000000000000000e-01</le></_></splits></_>
        <_>
          <depth>8</depth>
          <value>5.0000000000000000e-01</value></_>
        <_>
          <depth>8</depth>
          <value>-1.</value></_>
        <_>
          <depth>5</depth>
          <value>3.8461538461538336e-01</value>
          <splits>
            <_><var>0</var>
              <quality>2.6393537409603596e-03</quality>
              <le>4.3019449710845947e-01</le></_></splits></_>
        <_>
          <depth>6</depth>
          <value>-2.7777777777777779e-01</value>
          <splits>
            <_><var>1</var>
              <quality>7.7000958845019341e-04</quality>
              <le>8.5295498371124268e-02</le></_></splits></_>
        <_>
          <depth>7</depth>
          <value>3.8461538461538464e-01</value>
          <splits>
            <_><var>0</var>
              <quality>3.0916984542272985e-04</quality>
              <le>1.2666650116443634e-01</le></_></splits></_>
        <_>
          <depth>8</depth>
          <value>-2.0000000000000001e-01</value></_>
        <_>
          <depth>8</depth>
          <value>7.5000000000000000e-01</value></_>
        <_>
          <depth>7</depth>
          <value>-6.5217391304347827e-01</value>
          <splits>
            <_><var>1</var>
              <quality>1.0618903907015920e-03</quality>
              <le>9.8269999027252197e-02</le></_></splits></_>
        <_>
          <depth>8</depth>
          <value>-1.</value></_>
        <_>
          <depth>8</depth>
          <value>1.4285714285714285e-01</value></_>
        <_>
          <depth>6</depth>
          <value>6.7901234567901114e-01</value>
          <splits>
            <_><var>3</var>
              <quality>3.0364796984940767e-03</quality>
              <le>5.</le></_></splits></_>
        <_>
          <depth>7</depth>
          <value>8.0281690140844986e-01</value>
          <splits>
            <_><var>5</var>
              <quality>3.1914138235151768e-03</quality>
              <le>1.8397040367126465e+00</le></_></splits></_>
        <_>
          <depth>8</depth>
          <value>2.5000000000000000e-01</value></_>
        <_>
          <depth>8</depth>
          <value>8.7301587301587269e-01</value></_>
        <_>
          <depth>7</depth>
          <value>-2.0000000000000001e-01</value></_>
        <_>
          <depth>4</depth>
          <value>6.1325966850828695e-01</value>
          <splits>
            <_><var>0</var>
              <quality>1.0122797451913357e-02</quality>
              <le>3.9027152061462402e+00</le></_></splits></_>
        <_>
          <depth>5</depth>
          <value>7.4531835205992480e-01</value>
          <splits>
            <_><var>5</var>
              <quality>1.0418145917356014e-02</quality>
              <le>2.0058310031890869e+00</le></_></splits></_>
        <_>
          <depth>6</depth>
          <value>3.0232558139534882e-01</value>
          <splits>
            <_><var>0</var>
              <quality>6.7472324008122087e-04</quality>
              <le>1.2440475225448608e+00</le></_></splits></_>
        <_>
          <depth>7</depth>
          <value>-5.0000000000000000e-01</value></_>
        <_>
          <depth>7</depth>
          <value>4.8571428571428571e-01</value>
          <splits>
            <_><var>1</var>
              <quality>8.2226021913811564e-04</quality>
              <le>8.2252502441406250e-02</le></_></splits></_>
        <_>
          <depth>8</depth>
          <value>1.</value></_>
        <_>
          <depth>8</depth>
          <value>2.5000000000000000e-01</value></_>
        <_>
          <depth>6</depth>
          <value>8.3035714285714257e-01</value>
          <splits>
            <_><var>4</var>
              <quality>1.0439234785735607e-02</quality>
              <le>3.7489999085664749e-03</le></_></splits></_>
        <_>
          <depth>7</depth>
          <value>8.5321100917431170e-01</value>
          <splits>
            <_><var>5</var>
              <quality>1.0638857260346413e-02</quality>
              <le>2.7445359230041504e+00</le></_></splits></_>
        <_>
          <depth>8</depth>
          <value>7.4358974358974272e-01</value></_>
        <_>
          <depth>8</depth>
          <value>9.8019801980198007e-01</value></_>
        <_>
          <depth>7</depth>
          <value>0.</value></_>
        <_>
          <depth>5</depth>
          <value>2.4210526315789416e-01</value>
          <splits>
            <_><var>1</var>
              <quality>1.7119088442996144e-03</quality>
              <le>8.9914001524448395e-02</le></_></splits></_>
        <_>
          <depth>6</depth>
          <value>5.8064516129032251e-01</value>
          <splits>
            <_><var>5</var>
              <quality>1.7356015741825104e-03</quality>
              <le>2.5894575119018555e+00</le></_></splits></_>
        <_>
          <depth>7</depth>
          <value>8.3333333333333337e-01</value>
          <splits>
            <_><var>0</var>
              <quality>1.8747532740235329e-03</quality>
              <le>1.1724359512329102e+01</le></_></splits></_>
        <_>
          <depth>8</depth>
          <value>1.</value></_>
        <_>
          <depth>8</depth>
          <value>2.5000000000000000e-01</value></_>
        <_>
          <depth>7</depth>
          <value>2.3076923076923078e-01</value>
          <splits>
            <_><var>1</var>
              <quality>5.0431961426511407e-04</quality>
              <le>8.2768499851226807e-02</le></_></splits></_>
        <_>
          <depth>8</depth>
          <value>5.0000000000000000e-01</value></_>
        <_>
          <depth>8</depth>
          <value>-6.6666666666666663e-01</value></_>
        <_>
          <depth>6</depth>
          <value>-3.9393939393939392e-01</value>
          <splits>
            <_><var>1</var>
              <quality>6.0900306561961770e-04</quality>
              <le>1.0132099688053131e-01</le></_></splits></_>
        <_>
          <depth>7</depth>
          <value>-4.8387096774193550e-01</value>
          <splits>
            <_><var>0</var>
              <quality>6.2711047939956188e-04</quality>
              <le>1.3805555343627930e+01</le></_></splits></_>
        <_>
          <depth>8</depth>
          <value>-5.3333333333333333e-01</value></_>
        <_>
          <depth>8</depth>
          <value>1.</value></_>
        <_>
          <depth>7</depth>
          <value>1.</value></_>
        <_>
          <depth>3</depth>
          <value>8.3719074221867840e-01</value>
          <splits>
            <_><var>2</var>
              <quality>5.9572558850049973e-02</quality>
              <le>2.5000000000000000e+00</le></_></splits></_>
        <_>
          <depth>4</depth>
          <value>9.0918065153011085e-01</value>
          <splits>
            <_><var>0</var>
              <quality>5.6020766496658325e-02</quality>
              <le>3.6660051345825195e-01</le></_></splits></_>
        <_>
          <depth>5</depth>
          <value>1.3043478260869565e-01</value>
          <splits>
            <_><var>1</var>
              <quality>4.8343680100515485e-04</quality>
              <le>9.1111496090888977e-02</le></_></splits></_>
        <_>
          <depth>6</depth>
          <value>5.7142857142857140e-01</value>
          <splits>
            <_><var>0</var>
              <quality>4.7564590931870043e-04</quality>
              <le>3.6237347126007080e-01</le></_></splits></_>
        <_>
          <depth>7</depth>
          <value>6.9230769230769229e-01</value>
          <splits>
            <_><var>0</var>
              <quality>5.9202738339081407e-04</quality>
              <le>1.7304649949073792e-01</le></_></splits></_>
        <_>
          <depth>8</depth>
          <value>0.</value></_>
        <_>
          <depth>8</depth>
          <value>1.</value></_>
        <_>
          <depth>7</depth>
          <value>-1.</value></_>
        <_>
          <depth>6</depth>
          <value>-5.5555555555555558e-01</value></_>
        <_>
          <depth>5</depth>
          <value>9.2727272727272914e-01</value>
          <splits>
            <_><var>0</var>
              <quality>5.6759003549814224e-02</quality>
              <le>2.9246411323547363e+00</le></_></splits></_>
        <_>
          <depth>6</depth>
          <value>9.4769874476987581e-01</value>
          <splits>
            <_><var>5</var>
              <quality>5.6899972259998322e-02</quality>
              <le>1.4936259984970093e+00</le></_></splits></_>
        <_>
          <depth>7</depth>
          <value>5.9999999999999998e-01</value>
          <splits>
            <_><var>0</var>
              <quality>1.5491471858695149e-03</quality>
              <le>9.2536199092864990e-01</le></_></splits></_>
        <_>
          <depth>8</depth>
          <value>-1.1111111111111110e-01</value></_>
        <_>
          <depth>8</depth>
          <value>7.5609756097560976e-01</value></_>
        <_>
          <depth>7</depth>
          <value>9.6688741721854399e-01</value>
          <splits>
            <_><var>1</var>
              <quality>5.5818561464548111e-02</quality>
              <le>1.0134650021791458e-01</le></_></splits></_>
        <_>
          <depth>8</depth>
          <value>9.7482837528604194e-01</value></_>
        <_>
          <depth>8</depth>
          <value>7.5000000000000000e-01</value></_>
        <_>
          <depth>6</depth>
          <value>3.5294117647058826e-01</value>
          <splits>
            <_><var>1</var>
              <quality>5.6352233514189720e-04</quality>
              <le>9.2355996370315552e-02</le></_></splits></_>
        <_>
          <depth>7</depth>
          <value>5.8333333333333337e-01</value>
          <splits>
            <_><var>5</var>
              <quality>7.2672142414376140e-04</quality>
              <le>1.5235790014266968e+00</le></_></splits></_>
        <_>
          <depth>8</depth>
          <value>-3.3333333333333331e-01</value></_>
        <_>
          <depth>8</depth>
          <value>7.1428571428571430e-01</value></_>
        <_>
          <depth>7</depth>
          <value>-2.0000000000000001e-01</value></_>
        <_>
          <depth>4</depth>
          <value>5.3333333333333266e-01</value>
          <splits>
            <_><var>1</var>
              <quality>5.3988764993846416e-03</quality>
              <le>6.5783999860286713e-02</le></_></splits></_>
        <_>
          <depth>5</depth>
          <value>7.8761061946902577e-01</value>
          <splits>
            <_><var>1</var>
              <quality>4.8113497905433178e-03</quality>
              <le>5.2480999380350113e-02</le></_></splits></_>
        <_>
          <depth>6</depth>
          <value>9.6226415094339623e-01</value>
          <splits>
            <_><var>4</var>
              <quality>3.2524960115551949e-03</quality>
              <le>2.4363499134778976e-02</le></_></splits></_>
        <_>
          <depth>7</depth>
          <value>7.7777777777777779e-01</value></_>
        <_>
          <depth>7</depth>
          <value>1.</value></_>
        <_>
          <depth>6</depth>
          <value>6.3333333333333330e-01</value>
          <splits>
            <_><var>0</var>
              <quality>1.9088136032223701e-03</quality>
              <le>1.0465273857116699e+00</le></_></splits></_>
        <_>
          <depth>7</depth>
          <value>1.7647058823529413e-01</value>
          <splits>
            <_><var>6</var>
              <quality>5.1106634782627225e-04</quality>
              <le>11.</le></_></splits></_>
        <_>
          <depth>8</depth>
          <value>-1.</value></_>
        <_>
          <depth>8</depth>
          <value>5.3846153846153844e-01</value></_>
        <_>
          <depth>7</depth>
          <value>8.1395348837209303e-01</value>
          <splits>
            <_><var>1</var>
              <quality>2.0955889485776424e-03</quality>
              <le>5.2526500076055527e-02</le></_></splits></_>
        <_>
          <depth>8</depth>
          <value>-1.</value></_>
        <_>
          <depth>8</depth>
          <value>8.5714285714285710e-01</value></_>
        <_>
          <depth>5</depth>
          <value>3.0708661417322730e-01</value>
          <splits>
            <_><var>4</var>
              <quality>1.2063629692420363e-03</quality>
              <le>7.5515001080930233e-03</le></_></splits></_>
        <_>
          <depth>6</depth>
          <value>1.</value></_>
        <_>
          <depth>6</depth>
          <value>2.3478260869565143e-01</value>
          <splits>
            <_><var>4</var>
              <quality>1.0754017857834697e-03</quality>
              <le>3.7230499088764191e-02</le></_></splits></_>
        <_>
          <depth>7</depth>
          <value>-1.4925373134328348e-02</value>
          <splits>
            <_><var>5</var>
              <quality>2.8922676574438810e-04</quality>
              <le>1.2628486156463623e+00</le></_></splits></_>
        <_>
          <depth>8</depth>
          <value>1.</value></_>
        <_>
          <depth>8</depth>
          <value>-7.9365079365079347e-02</value></_>
        <_>
          <depth>7</depth>
          <value>5.8333333333333337e-01</value>
          <splits>
            <_><var>2</var>
              <quality>1.2864865129813552e-03</quality>
              <le>5.5000000000000000e+00</le></_></splits></_>
        <_>
          <depth>8</depth>
          <value>7.9310344827586210e-01</value></_>
        <_>
          <depth>8</depth>
          <value>2.6315789473684209e-01</value></_>
        <_>
          <depth>2</depth>
          <value>-1.2432432432432852e-01</value>
          <splits>
            <_><var>0</var>
              <quality>6.5774242393672466e-03</quality>
              <le>6.1113899946212769e-01</le></_></splits></_>
        <_>
          <depth>3</depth>
          <value>-4.2028985507246636e-01</value>
          <splits>
            <_><var>6</var>
              <quality>7.8019937500357628e-03</quality>
              <le>8.5000000000000000e+00</le></_></splits></_>
        <_>
          <depth>4</depth>
          <value>-6.2081784386617056e-01</value>
          <splits>
            <_><var>6</var>
              <quality>7.2879819199442863e-03</quality>
              <le>7.5000000000000000e+00</le></_></splits></_>
        <_>
          <depth>5</depth>
          <value>-2.9629629629629628e-01</value>
          <splits>
            <_><var>4</var>
              <quality>6.6296744626015425e-04</quality>
              <le>1.8984999507665634e-02</le></_></splits></_>
        <_>
          <depth>6</depth>
          <value>-3.7254901960784315e-01</value>
          <splits>
            <_><var>1</var>
              <quality>7.3528336361050606e-04</quality>
              <le>1.5386399626731873e-01</le></_></splits></_>
        <_>
          <depth>7</depth>
          <value>-5.5555555555555558e-01</value>
          <splits>
            <_><var>0</var>
              <quality>8.7571988115087152e-04</quality>
              <le>2.8634148836135864e-01</le></_></splits></_>
        <_>
          <depth>8</depth>
          <value>-2.9411764705882354e-01</value></_>
        <_>
          <depth>8</depth>
          <value>-7.8947368421052633e-01</value></_>
        <_>
          <depth>7</depth>
          <value>6.6666666666666666e-02</value>
          <splits>
            <_><var>1</var>
              <quality>2.1926939371041954e-04</quality>
              <le>1.5685349702835083e-01</le></_></splits></_>
        <_>
          <depth>8</depth>
          <value>1.</value></_>
        <_>
          <depth>8</depth>
          <value>-1.6666666666666666e-01</value></_>
        <_>
          <depth>6</depth>
          <value>1.</value></_>
        <_>
          <depth>5</depth>
          <value>-7.0232558139534829e-01</value>
          <splits>
            <_><var>5</var>
              <quality>7.3686474934220314e-03</quality>
              <le>1.2250214815139771e+00</le></_></splits></_>
        <_>
          <depth>6</depth>
          <value>-4.1818181818181815e-01</value>
          <splits>
            <_><var>0</var>
              <quality>1.1617592535912991e-03</quality>
              <le>2.9380050301551819e-01</le></_></splits></_>
        <_>
          <depth>7</depth>
          <value>-9.0476190476190477e-01</value>
          <splits>
            <_><var>0</var>
              <quality>1.1708985548466444e-03</quality>
              <le>2.5369700789451599e-01</le></_></splits></_>
        <_>
          <depth>8</depth>
          <value>-1.</value></_>
        <_>
          <depth>8</depth>
          <value>-5.9999999999999998e-01</value></_>
        <_>
          <depth>7</depth>
          <value>-1.1764705882352941e-01</value>
          <splits>
            <_><var>1</var>
              <quality>3.1876395223662257e-04</quality>
              <le>1.7512649297714233e-01</le></_></splits></_>
        <_>
          <depth>8</depth>
          <value>1.3043478260869565e-01</value></_>
        <_>
          <depth>8</depth>
          <value>-6.3636363636363635e-01</value></_>
        <_>
          <depth>6</depth>
          <value>-7.9999999999999949e-01</value>
          <splits>
            <_><var>5</var>
              <quality>6.9519770331680775e-03</quality>
              <le>2.1360690593719482e+00</le></_></splits></_>
        <_>
          <depth>7</depth>
          <value>-8.3892617449664386e-01</value>
          <splits>
            <_><var>1</var>
              <quality>6.9908462464809418e-03</quality>
              <le>1.4256349205970764e-01</le></_></splits></_>
        <_>
          <depth>8</depth>
          <value>-7.3134328358208900e-01</value></_>
        <_>
          <depth>8</depth>
          <value>-9.2682926829268253e-01</value></_>
        <_>
          <depth>7</depth>
          <value>-2.7272727272727271e-01</value>
          <splits>
            <_><var>0</var>
              <quality>3.7275796057656407e-04</quality>
              <le>3.8095200061798096e-01</le></_></splits></_>
        <_>
          <depth>8</depth>
          <value>-1.</value></_>
        <_>
          <depth>8</depth>
          <value>3.3333333333333331e-01</value></_>
        <_>
          <depth>4</depth>
          <value>-2.2968197879858551e-01</value>
          <splits>
            <_><var>0</var>
              <quality>2.2723788861185312e-03</quality>
              <le>3.2971000671386719e-01</le></_></splits></_>
        <_>
          <depth>5</depth>
          <value>-4.4910179640718434e-01</value>
          <splits>
            <_><var>6</var>
              <quality>2.7744127437472343e-03</quality>
              <le>1.4500000000000000e+01</le></_></splits></_>
        <_>
          <depth>6</depth>
          <value>-6.0714285714285576e-01</value>
          <splits>
            <_><var>1</var>
              <quality>2.9046640265733004e-03</quality>
              <le>1.6089749336242676e-01</le></_></splits></_>
        <_>
          <depth>7</depth>
          <value>-6.7010309278350377e-01</value>
          <splits>
            <_><var>5</var>
              <quality>2.9929711017757654e-03</quality>
              <le>1.2474579811096191e+00</le></_></splits></_>
        <_>
          <depth>8</depth>
          <value>-8.2222222222222219e-01</value></_>
        <_>
          <depth>8</depth>
          <value>-5.3846153846153844e-01</value></_>
        <_>
          <depth>7</depth>
          <value>-2.0000000000000001e-01</value>
          <splits>
            <_><var>0</var>
              <quality>3.5521641257219017e-04</quality>
              <le>3.0052548646926880e-01</le></_></splits></_>
        <_>
          <depth>8</depth>
          <value>-1.</value></_>
        <_>
          <depth>8</depth>
          <value>2.0000000000000001e-01</value></_>
        <_>
          <depth>6</depth>
          <value>-1.2727272727272726e-01</value>
          <splits>
            <_><var>1</var>
              <quality>2.8212662436999381e-04</quality>
              <le>1.4040550589561462e-01</le></_></splits></_>
        <_>
          <depth>7</depth>
          <value>-2.4444444444444444e-01</value>
          <splits>
            <_><var>4</var>
              <quality>3.3692613942548633e-04</quality>
              <le>1.0874499566853046e-02</le></_></splits></_>
        <_>
          <depth>8</depth>
          <value>-3.1707317073170732e-01</value></_>
        <_>
          <depth>8</depth>
          <value>5.0000000000000000e-01</value></_>
        <_>
          <depth>7</depth>
          <value>4.0000000000000002e-01</value></_>
        <_>
          <depth>5</depth>
          <value>8.6206896551723866e-02</value>
          <splits>
            <_><var>0</var>
              <quality>3.5278403083793819e-04</quality>
              <le>3.7715500593185425e-01</le></_></splits></_>
        <_>
          <depth>6</depth>
          <value>3.6842105263157893e-01</value>
          <splits>
            <_><var>4</var>
              <quality>5.9422006597742438e-04</quality>
              <le>3.6010001786053181e-03</le></_></splits></_>
        <_>
          <depth>7</depth>
          <value>5.3333333333333333e-01</value>
          <splits>
            <_><var>0</var>
              <quality>7.7621365198865533e-04</quality>
              <le>3.5147050023078918e-01</le></_></splits></_>
        <_>
          <depth>8</depth>
          <value>2.9999999999999999e-01</value></_>
        <_>
          <depth>8</depth>
          <value>1.</value></_>
        <_>
          <depth>7</depth>
          <value>-2.5000000000000000e-01</value></_>
        <_>
          <depth>6</depth>
          <value>-5.1282051282051204e-02</value>
          <splits>
            <_><var>1</var>
              <quality>3.2001480576582253e-04</quality>
              <le>1.0906000435352325e-01</le></_></splits></_>
        <_>
          <depth>7</depth>
          <value>1.</value></_>
        <_>
          <depth>7</depth>
          <value>-1.0810810810810798e-01</value>
          <splits>
            <_><var>6</var>
              <quality>3.0406378209590912e-04</quality>
              <le>1.0500000000000000e+01</le></_></splits></_>
        <_>
          <depth>8</depth>
          <value>-4.5454545454545453e-01</value></_>
        <_>
          <depth>8</depth>
          <value>3.8461538461538464e-02</value></_>
        <_>
          <depth>3</depth>
          <value>5.1724137931035523e-02</value>
          <splits>
            <_><var>0</var>
              <quality>3.5012015141546726e-03</quality>
              <le>2.7663044929504395e+00</le></_></splits></_>
        <_>
          <depth>4</depth>
          <value>1.8246110325318518e-01</value>
          <splits>
            <_><var>6</var>
              <quality>2.8431781101971865e-03</quality>
              <le>1.0500000000000000e+01</le></_></splits></_>
        <_>
          <depth>5</depth>
          <value>8.7850467289719680e-02</value>
          <splits>
            <_><var>3</var>
              <quality>7.3130324017256498e-04</quality>
              <le>5.</le></_></splits></_>
        <_>
          <depth>6</depth>
          <value>1.0516252390057350e-01</value>
          <splits>
            <_><var>5</var>
              <quality>8.8731531286612153e-04</quality>
              <le>1.4378219842910767e+00</le></_></splits></_>
        <_>
          <depth>7</depth>
          <value>-1.0989010989010934e-02</value>
          <splits>
            <_><var>1</var>
              <quality>1.9734245142899454e-04</quality>
              <le>1.0787399858236313e-01</le></_></splits></_>
        <_>
          <depth>8</depth>
          <value>-1.</value></_>
        <_>
          <depth>8</depth>
          <value>0.</value></_>
        <_>
          <depth>7</depth>
          <value>2.3199999999999887e-01</value>
          <splits>
            <_><var>4</var>
              <quality>1.6648882301524282e-03</quality>
              <le>6.0010002925992012e-03</le></_></splits></_>
        <_>
          <depth>8</depth>
          <value>9.8901098901098466e-02</value></_>
        <_>
          <depth>8</depth>
          <value>5.8823529411764663e-01</value></_>
        <_>
          <depth>6</depth>
          <value>-6.6666666666666663e-01</value>
          <splits>
            <_><var>1</var>
              <quality>6.1395432567223907e-04</quality>
              <le>1.1478850245475769e-01</le></_></splits></_>
        <_>
          <depth>7</depth>
          <value>-1.</value></_>
        <_>
          <depth>7</depth>
          <value>3.3333333333333331e-01</value></_>
        <_>
          <depth>5</depth>
          <value>4.7674418604651042e-01</value>
          <splits>
            <_><var>1</var>
              <quality>3.2414377201348543e-03</quality>
              <le>1.1695650219917297e-01</le></_></splits></_>
        <_>
          <depth>6</depth>
          <value>7.5675675675675580e-01</value>
          <splits>
            <_><var>0</var>
              <quality>2.9469807632267475e-03</quality>
              <le>2.3296699523925781e+00</le></_></splits></_>
        <_>
          <depth>7</depth>
          <value>7.9999999999999927e-01</value>
          <splits>
            <_><var>1</var>
              <quality>3.0697714537382126e-03</quality>
              <le>1.0391549766063690e-01</le></_></splits></_>
        <_>
          <depth>8</depth>
          <value>4.0000000000000002e-01</value></_>
        <_>
          <depth>8</depth>
          <value>8.6666666666666670e-01</value></_>
        <_>
          <depth>7</depth>
          <value>0.</value></_>
        <_>
          <depth>6</depth>
          <value>2.6530612244897889e-01</value>
          <splits>
            <_><var>4</var>
              <quality>7.3639611946418881e-04</quality>
              <le>5.0254999659955502e-03</le></_></splits></_>
        <_>
          <depth>7</depth>
          <value>8.7719298245614030e-02</value>
          <splits>
            <_><var>4</var>
              <quality>2.7530491934157908e-04</quality>
              <le>4.1610002517700195e-03</le></_></splits></_>
        <_>
          <depth>8</depth>
          <value>1.4814814814814814e-01</value></_>
        <_>
          <depth>8</depth>
          <value>-1.</value></_>
        <_>
          <depth>7</depth>
          <value>5.1219512195121952e-01</value>
          <splits>
            <_><var>0</var>
              <quality>9.6929969731718302e-04</quality>
              <le>1.3238635063171387e+00</le></_></splits></_>
        <_>
          <depth>8</depth>
          <value>2.5000000000000000e-01</value></_>
        <_>
          <depth>8</depth>
          <value>8.8235294117647056e-01</value></_>
        <_>
          <depth>4</depth>
          <value>-3.6651583710407126e-01</value>
          <splits>
            <_><var>1</var>
              <quality>2.4294697213917971e-03</quality>
              <le>1.5250900387763977e-01</le></_></splits></_>
        <_>
          <depth>5</depth>
          <value>-2.9896907216494711e-01</value>
          <splits>
            <_><var>0</var>
              <quality>1.8471713410690427e-03</quality>
              <le>4.3000001907348633e+00</le></_></splits></_>
        <_>
          <depth>6</depth>
          <value>-5.3763440860214930e-02</value>
          <splits>
            <_><var>0</var>
              <quality>4.8807743587531149e-04</quality>
              <le>4.0757141113281250e+00</le></_></splits></_>
        <_>
          <depth>7</depth>
          <value>-1.6049382716049354e-01</value>
          <splits>
            <_><var>6</var>
              <quality>5.0788722001016140e-04</quality>
              <le>8.5000000000000000e+00</le></_></splits></_>
        <_>
          <depth>8</depth>
          <value>-4.7058823529411764e-01</value></_>
        <_>
          <depth>8</depth>
          <value>6.3829787234042548e-02</value></_>
        <_>
          <depth>7</depth>
          <value>6.6666666666666663e-01</value>
          <splits>
            <_><var>4</var>
              <quality>5.5016682017594576e-04</quality>
              <le>1.8874499946832657e-02</le></_></splits></_>
        <_>
          <depth>8</depth>
          <value>8.1818181818181823e-01</value></_>
        <_>
          <depth>8</depth>
          <value>-1.</value></_>
        <_>
          <depth>6</depth>
          <value>-5.2475247524752333e-01</value>
          <splits>
            <_><var>1</var>
              <quality>2.0912180189043283e-03</quality>
              <le>1.3848949968814850e-01</le></_></splits></_>
        <_>
          <depth>7</depth>
          <value>-4.4186046511627819e-01</value>
          <splits>
            <_><var>5</var>
              <quality>1.3214026112109423e-03</quality>
              <le>1.3926194906234741e+00</le></_></splits></_>
        <_>
          <depth>8</depth>
          <value>-1.8750000000000000e-01</value></_>
        <_>
          <depth>8</depth>
          <value>-5.9259259259259256e-01</value></_>
        <_>
          <depth>7</depth>
          <value>-1.</value></_>
        <_>
          <depth>5</depth>
          <value>-8.5185185185185186e-01</value>
          <splits>
            <_><var>1</var>
              <quality>1.4603341696783900e-03</quality>
              <le>1.7593950033187866e-01</le></_></splits></_>
        <_>
          <depth>6</depth>
          <value>-1.</value></_>
        <_>
          <depth>6</depth>
          <value>-2.0000000000000001e-01</value></_></nodes></_>
    <_>
      <nodes>
        <_>
          <depth>0</depth>
          <value>-1.3605168190999975e-01</value>
          <splits>
            <_><var>6</var>
              <quality>4.4187005609273911e-02</quality>
              <le>8.5000000000000000e+00</le></_></splits></_>
        <_>
          <depth>1</depth>
          <value>-2.0161081486566057e-01</value>
          <splits>
            <_><var>0</var>
              <quality>5.3736489266157150e-02</quality>
              <le>9.8367345333099365e-01</le></_></splits></_>
        <_>
          <depth>2</depth>
          <value>-3.4100074589531965e-01</value>
          <splits>
            <_><var>3</var>
              <quality>7.5787015259265900e-02</quality>
              <le>3.</le></_></splits></_>
        <_>
          <depth>3</depth>
          <value>-2.0842974319069910e-01</value>
          <splits>
            <_><var>5</var>
              <quality>2.2729756310582161e-02</quality>
              <le>1.0294195413589478e+00</le></_></splits></_>
        <_>
          <depth>4</depth>
          <value>-5.9674984326737290e-01</value>
          <splits>
            <_><var>5</var>
              <quality>1.8835728988051414e-02</quality>
              <le>1.0000740289688110e+00</le></_></splits></_>
        <_>
          <depth>5</depth>
          <value>-4.1339878006398983e-01</value>
          <splits>
            <_><var>2</var>
              <quality>7.8167039901018143e-03</quality>
              <le>5.0000000000000000e-01</le></_></splits></_>
        <_>
          <depth>6</depth>
          <value>-2.0666088267418015e-01</value>
          <splits>
            <_><var>0</var>
              <quality>4.0968065150082111e-03</quality>
              <le>4.9615401029586792e-01</le></_></splits></_>
        <_>
          <depth>7</depth>
          <value>-1.</value></_>
        <_>
          <depth>7</depth>
          <value>-3.0788635464137648e-03</value>
          <splits>
            <_><var>1</var>
              <quality>4.5132730156183243e-03</quality>
              <le>2.2909499704837799e-01</le></_></splits></_>
        <_>
          <depth>8</depth>
          <value>3.3410407434938399e-01</value></_>
        <_>
          <depth>8</depth>
          <value>-8.4150072094407280e-01</value></_>
        <_>
          <depth>6</depth>
          <value>-9.4060290355249687e-01</value>
          <splits>
            <_><var>2</var>
              <quality>7.1994932368397713e-03</quality>
              <le>3.5000000000000000e+00</le></_></splits></_>
        <_>
          <depth>7</depth>
          <value>-1.</value></_>
        <_>
          <depth>7</depth>
          <value>-4.2789871870536111e-01</value>
          <splits>
            <_><var>0</var>
              <quality>4.8227162915281951e-04</quality>
              <le>8.6086297035217285e-01</le></_></splits></_>
        <_>
          <depth>8</depth>
          <value>-1.</value></_>
        <_>
          <depth>8</depth>
          <value>2.8418769142610995e-01</value></_>
        <_>
          <depth>5</depth>
          <value>-8.7645469685192645e-01</value>
          <splits>
            <_><var>5</var>
              <quality>1.4359158463776112e-02</quality>
              <le>1.0213555097579956e+00</le></_></splits></_>
        <_>
          <depth>6</depth>
          <value>-1.</value></_>
        <_>
          <depth>6</depth>
          <value>-7.4548611409667676e-01</value>
          <splits>
            <_><var>5</var>
              <quality>5.4102670401334763e-03</quality>
              <le>1.0229170322418213e+00</le></_></splits></_>
        <_>
          <depth>7</depth>
          <value>-4.2070442673399711e-01</value>
          <splits>
            <_><var>5</var>
              <quality>9.7782793454825878e-04</quality>
              <le>1.0228741168975830e+00</le></_></splits></_>
        <_>
          <depth>8</depth>
          <value>-5.5000985672245772e-01</value></_>
        <_>
          <depth>8</depth>
          <value>7.5296072347278886e-01</value></_>
        <_>
          <depth>7</depth>
          <value>-9.0888018572868456e-01</value>
          <splits>
            <_><var>5</var>
              <quality>4.9911048263311386e-03</quality>
              <le>1.0274364948272705e+00</le></_></splits></_>
        <_>
          <depth>8</depth>
          <value>-1.</value></_>
        <_>
          <depth>8</depth>
          <value>-7.0974963810733649e-01</value></_>
        <_>
          <depth>4</depth>
          <value>-1.4673143739170999e-01</value>
          <splits>
            <_><var>1</var>
              <quality>1.2489946559071541e-02</quality>
              <le>1.3235050439834595e-01</le></_></splits></_>
        <_>
          <depth>5</depth>
          <value>-4.4772622221314051e-01</value>
          <splits>
            <_><var>6</var>
              <quality>1.5084532089531422e-02</quality>
              <le>4.5000000000000000e+00</le></_></splits></_>
        <_>
          <depth>6</depth>
          <value>-6.6314590347205993e-01</value>
          <splits>
            <_><var>4</var>
              <quality>1.5311838127672672e-02</quality>
              <le>1.6264548897743225e-01</le></_></splits></_>
        <_>
          <depth>7</depth>
          <value>-7.0005308218228557e-01</value>
          <splits>
            <_><var>0</var>
              <quality>1.5688193961977959e-02</quality>
              <le>6.9255900382995605e-01</le></_></splits></_>
        <_>
          <depth>8</depth>
          <value>-5.6843334102589682e-01</value></_>
        <_>
          <depth>8</depth>
          <value>-8.2702593226458010e-01</value></_>
        <_>
          <depth>7</depth>
          <value>-2.3094371383826828e-01</value>
          <splits>
            <_><var>1</var>
              <quality>1.0943926172330976e-03</quality>
              <le>8.0365002155303955e-02</le></_></splits></_>
        <_>
          <depth>8</depth>
          <value>1.</value></_>
        <_>
          <depth>8</depth>
          <value>-5.2394324737516706e-01</value></_>
        <_>
          <depth>6</depth>
          <value>-1.1848947682126984e-01</value>
          <splits>
            <_><var>0</var>
              <quality>1.7231933306902647e-03</quality>
              <le>6.9615399837493896e-01</le></_></splits></_>
        <_>
          <depth>7</depth>
          <value>-3.3707773816015302e-01</value>
          <splits>
            <_><var>0</var>
              <quality>2.2339026909321547e-03</quality>
              <le>3.1311300396919250e-01</le></_></splits></_>
        <_>
          <depth>8</depth>
          <value>-4.9209036807741205e-02</value></_>
        <_>
          <depth>8</depth>
          <value>-5.5749012194962200e-01</value></_>
        <_>
          <depth>7</depth>
          <value>1.7586865212493780e-01</value>
          <splits>
            <_><var>4</var>
              <quality>9.4026030274108052e-04</quality>
              <le>8.9304996654391289e-03</le></_></splits></_>
        <_>
          <depth>8</depth>
          <value>-3.6200549334742253e-02</value></_>
        <_>
          <depth>8</depth>
          <value>5.0328505291893522e-01</value></_>
        <_>
          <depth>5</depth>
          <value>-7.5661870866568934e-02</value>
          <splits>
            <_><var>4</var>
              <quality>2.9461246449500322e-03</quality>
              <le>2.6491500437259674e-02</le></_></splits></_>
        <_>
          <depth>6</depth>
          <value>-6.1556455325954093e-02</value>
          <splits>
            <_><var>4</var>
              <quality>2.6406596880406141e-03</quality>
              <le>3.0149999656714499e-04</le></_></splits></_>
        <_>
          <depth>7</depth>
          <value>-8.6412880244674833e-02</value>
          <splits>
            <_><var>0</var>
              <quality>2.7749706059694290e-03</quality>
              <le>7.0185196399688721e-01</le></_></splits></_>
        <_>
          <depth>8</depth>
          <value>-1.4186507761185962e-01</value></_>
        <_>
          <depth>8</depth>
          <value>1.5160659556369771e-02</value></_>
        <_>
          <depth>7</depth>
          <value>2.5050656380799075e-01</value>
          <splits>
            <_><var>0</var>
              <quality>1.3415695866569877e-03</quality>
              <le>4.7295302152633667e-01</le></_></splits></_>
        <_>
          <depth>8</depth>
          <value>-2.3107157263465711e-02</value></_>
        <_>
          <depth>8</depth>
          <value>3.1174572675030687e-01</value></_>
        <_>
          <depth>6</depth>
          <value>-5.5704802602419912e-01</value>
          <splits>
            <_><var>5</var>
              <quality>3.4592652227729559e-03</quality>
              <le>1.2505159378051758e+00</le></_></splits></_>
        <_>
          <depth>7</depth>
          <value>-8.3424130247459838e-01</value>
          <splits>
            <_><var>0</var>
              <quality>4.2309085838496685e-03</quality>
              <le>4.4519501924514771e-01</le></_></splits></_>
        <_>
          <depth>8</depth>
          <value>1.9729598146841634e-01</value></_>
        <_>
          <depth>8</depth>
          <value>-1.</value></_>
        <_>
          <depth>7</depth>
          <value>1.8570955448064386e-01</value>
          <splits>
            <_><var>5</var>
              <quality>4.8367428826168180e-04</quality>
              <le>1.3060200214385986e+00</le></_></splits></_>
        <_>
          <depth>8</depth>
          <value>6.9900837016228101e-01</value></_>
        <_>
          <depth>8</depth>
          <value>-2.6447584478946279e-01</value></_>
        <_>
          <depth>3</depth>
          <value>-7.1837226962410750e-01</value>
          <splits>
            <_><var>6</var>
              <quality>6.4260974526405334e-02</quality>
              <le>6.5000000000000000e+00</le></_></splits></_>
        <_>
          <depth>4</depth>
          <value>-7.6311951651519994e-01</value>
          <splits>
            <_><var>2</var>
              <quality>6.7043110728263855e-02</quality>
              <le>1.5000000000000000e+00</le></_></splits></_>
        <_>
          <depth>5</depth>
          <value>-8.3984721766373915e-01</value>
          <splits>
            <_><var>6</var>
              <quality>6.5326124429702759e-02</quality>
              <le>2.5000000000000000e+00</le></_></splits></_>
        <_>
          <depth>6</depth>
          <value>-9.7726827520588277e-01</value>
          <splits>
            <_><var>0</var>
              <quality>4.3945427983999252e-02</quality>
              <le>8.9498746395111084e-01</le></_></splits></_>
        <_>
          <depth>7</depth>
          <value>-1.</value></_>
        <_>
          <depth>7</depth>
          <value>-8.5981891068094018e-01</value>
          <splits>
            <_><var>0</var>
              <quality>6.3087060116231441e-03</quality>
              <le>8.9538002014160156e-01</le></_></splits></_>
        <_>
          <depth>8</depth>
          <value>7.5636034620556880e-01</value></_>
        <_>
          <depth>8</depth>
          <value>-9.2699611107838020e-01</value></_>
        <_>
          <depth>6</depth>
          <value>-6.9727566556268561e-01</value>
          <splits>
            <_><var>4</var>
              <quality>2.5431198999285698e-02</quality>
              <le>1.5546999871730804e-02</le></_></splits></_>
        <_>
          <depth>7</depth>
          <value>-8.4320906182966626e-01</value>
          <splits>
            <_><var>1</var>
              <quality>2.6050820946693420e-02</quality>
              <le>1.4463700354099274e-01</le></_></splits></_>
        <_>
          <depth>8</depth>
          <value>-8.7926431244304570e-01</value></_>
        <_>
          <depth>8</depth>
          <value>-3.0915715452159670e-01</value></_>
        <_>
          <depth>7</depth>
          <value>-8.8689137210579361e-02</value>
          <splits>
            <_><var>1</var>
              <quality>1.4399021165445447e-03</quality>
              <le>1.0686799883842468e-01</le></_></splits></_>
        <_>
          <depth>8</depth>
          <value>1.4011403684257501e-01</value></_>
        <_>
          <depth>8</depth>
          <value>-7.8999780595411229e-01</value></_>
        <_>
          <depth>5</depth>
          <value>-4.1733172028339832e-01</value>
          <splits>
            <_><var>0</var>
              <quality>4.8172767274081707e-03</quality>
              <le>7.9549646377563477e-01</le></_></splits></_>
        <_>
          <depth>6</depth>
          <value>-6.3676337380065517e-01</value>
          <splits>
            <_><var>1</var>
              <quality>6.1261625960469246e-03</quality>
              <le>9.4859004020690918e-02</le></_></splits></_>
        <_>
          <depth>7</depth>
          <value>-2.8932641424086758e-01</value>
          <splits>
            <_><var>0</var>
              <quality>1.1870037997141480e-03</quality>
              <le>6.7738449573516846e-01</le></_></splits></_>
        <_>
          <depth>8</depth>
          <value>1.1071126589406653e-02</value></_>
        <_>
          <depth>8</depth>
          <value>-6.8765602179857788e-01</value></_>
        <_>
          <depth>7</depth>
          <value>-9.8763622897915349e-01</value>
          <splits>
            <_><var>6</var>
              <quality>5.6514488533139229e-03</quality>
              <le>4.5000000000000000e+00</le></_></splits></_>
        <_>
          <depth>8</depth>
          <value>-1.</value></_>
        <_>
          <depth>8</depth>
          <value>-7.9339687110835211e-01</value></_>
        <_>
          <depth>6</depth>
          <value>-1.1312046962116203e-01</value>
          <splits>
            <_><var>4</var>
              <quality>7.7101850183680654e-04</quality>
              <le>5.8166500180959702e-02</le></_></splits></_>
        <_>
          <depth>7</depth>
          <value>-1.</value></_>
        <_>
          <depth>7</depth>
          <value>-2.3794536347079492e-02</value>
          <splits>
            <_><var>5</var>
              <quality>9.2628342099487782e-04</quality>
              <le>1.0443804264068604e+00</le></_></splits></_>
        <_>
          <depth>8</depth>
          <value>-2.8373754611530599e-01</value></_>
        <_>
          <depth>8</depth>
          <value>4.4213785598903743e-01</value></_>
        <_>
          <depth>4</depth>
          <value>-1.2903543736614509e-01</value>
          <splits>
            <_><var>4</var>
              <quality>1.4815875329077244e-03</quality>
              <le>4.9499998567625880e-05</le></_></splits></_>
        <_>
          <depth>5</depth>
          <value>-4.7148218799851765e-01</value>
          <splits>
            <_><var>5</var>
              <quality>2.0040704403072596e-03</quality>
              <le>2.8740539550781250e+00</le></_></splits></_>
        <_>
          <depth>6</depth>
          <value>-6.6037765629451062e-01</value>
          <splits>
            <_><var>1</var>
              <quality>2.3121039848774672e-03</quality>
              <le>1.2753050029277802e-01</le></_></splits></_>
        <_>
          <depth>7</depth>
          <value>-7.3936409922279278e-01</value>
          <splits>
            <_><var>1</var>
              <quality>2.5356926489621401e-03</quality>
              <le>7.2579503059387207e-02</le></_></splits></_>
        <_>
          <depth>8</depth>
          <value>-4.2155733505210354e-02</value></_>
        <_>
          <depth>8</depth>
          <value>-8.9001578312278973e-01</value></_>
        <_>
          <depth>7</depth>
          <value>1.</value></_>
        <_>
          <depth>6</depth>
          <value>5.4754952473833995e-01</value></_>
        <_>
          <depth>5</depth>
          <value>3.3984439261777621e-01</value>
          <splits>
            <_><var>1</var>
              <quality>1.0152091272175312e-03</quality>
              <le>1.1772999912500381e-01</le></_></splits></_>
        <_>
          <depth>6</depth>
          <value>4.9695809625011028e-01</value>
          <splits>
            <_><var>4</var>
              <quality>1.2067670468240976e-03</quality>
              <le>1.2777251005172729e-01</le></_></splits></_>
        <_>
          <depth>7</depth>
          <value>6.3142293561768181e-01</value>
          <splits>
            <_><var>2</var>
              <quality>1.5472240047529340e-03</quality>
              <le>2.5000000000000000e+00</le></_></splits></_>
        <_>
          <depth>8</depth>
          <value>8.2377111728636943e-01</value></_>
        <_>
          <depth>8</depth>
          <value>-2.2925501854837851e-01</value></_>
        <_>
          <depth>7</depth>
          <value>-5.7422508597956867e-01</value></_>
        <_>
          <depth>6</depth>
          <value>-7.5619362757878350e-01</value></_>
        <_>
          <depth>2</depth>
          <value>-4.3174792687961434e-02</value>
          <splits>
            <_><var>1</var>
              <quality>7.1214959025382996e-03</quality>
              <le>6.7487500607967377e-02</le></_></splits></_>
        <_>
          <depth>3</depth>
          <value>7.3689538990372550e-01</value>
          <splits>
            <_><var>0</var>
              <quality>6.3160881400108337e-03</quality>
              <le>1.2914645671844482e+00</le></_></splits></_>
        <_>
          <depth>4</depth>
          <value>3.4454126655174705e-01</value>
          <splits>
            <_><var>5</var>
              <quality>8.2732271403074265e-04</quality>
              <le>4.8581380844116211e+00</le></_></splits></_>
        <_>
          <depth>5</depth>
          <value>4.3909696412491678e-01</value>
          <splits>
            <_><var>6</var>
              <quality>1.2197280302643776e-03</quality>
              <le>5.</le></_></splits></_>
        <_>
          <depth>6</depth>
          <value>8.3578007932404164e-01</value>
          <splits>
            <_><var>4</var>
              <quality>1.4936301158741117e-03</quality>
              <le>1.2644900083541870e+00</le></_></splits></_>
        <_>
          <depth>7</depth>
          <value>9.5527244180130055e-01</value>
          <splits>
            <_><var>3</var>
              <quality>1.4989037299528718e-03</quality>
              <le>5.</le></_></splits></_>
        <_>
          <depth>8</depth>
          <value>3.8147136178395546e-01</value></_>
        <_>
          <depth>8</depth>
          <value>1.</value></_>
        <_>
          <depth>7</depth>
          <value>-5.0000000000000000e-01</value></_>
        <_>
          <depth>6</depth>
          <value>-5.2809443886071290e-02</value>
          <splits>
            <_><var>4</var>
              <quality>3.0355202034115791e-04</quality>
              <le>3.3850001636892557e-04</le></_></splits></_>
        <_>
          <depth>7</depth>
          <value>-6.0892780661084922e-01</value>
          <splits>
            <_><var>1</var>
              <quality>2.9592742794193327e-04</quality>
              <le>6.3965499401092529e-02</le></_></splits></_>
        <_>
          <depth>8</depth>
          <value>-2.3692659601989605e-01</value></_>
        <_>
          <depth>8</depth>
          <value>-1.</value></_>
        <_>
          <depth>7</depth>
          <value>3.3106116495950572e-01</value>
          <splits>
            <_><var>1</var>
              <quality>5.6250608759000897e-04</quality>
              <le>5.3867496550083160e-02</le></_></splits></_>
        <_>
          <depth>8</depth>
          <value>-7.2258983348441053e-01</value></_>
        <_>
          <depth>8</depth>
          <value>8.6993801248992264e-01</value></_>
        <_>
          <depth>5</depth>
          <value>-1.</value></_>
        <_>
          <depth>4</depth>
          <value>9.2984541569253243e-01</value>
          <splits>
            <_><var>5</var>
              <quality>6.1855418607592583e-03</quality>
              <le>6.9827022552490234e+00</le></_></splits></_>
        <_>
          <depth>5</depth>
          <value>9.5021017375799866e-01</value>
          <splits>
            <_><var>4</var>
              <quality>6.2946449033915997e-03</quality>
              <le>1.9821535348892212e+00</le></_></splits></_>
        <_>
          <depth>6</depth>
          <value>9.7827166116999653e-01</value>
          <splits>
            <_><var>4</var>
              <quality>6.3102152198553085e-03</quality>
              <le>1.2183065414428711e+00</le></_></splits></_>
        <_>
          <depth>7</depth>
          <value>9.8864226098152586e-01</value>
          <splits>
            <_><var>5</var>
              <quality>6.1553656123578548e-03</quality>
              <le>3.0741143226623535e+00</le></_></splits></_>
        <_>
          <depth>8</depth>
          <value>1.</value></_>
        <_>
          <depth>8</depth>
          <value>9.0565641056994406e-01</value></_>
        <_>
          <depth>7</depth>
          <value>7.5000000000000000e-01</value></_>
        <_>
          <depth>6</depth>
          <value>0.</value></_>
        <_>
          <depth>5</depth>
          <value>-1.</value></_>
        <_>
          <depth>3</depth>
          <value>-6.3556269111799152e-02</value>
          <splits>
            <_><var>2</var>
              <quality>4.3708235025405884e-03</quality>
              <le>1.5000000000000000e+00</le></_></splits></_>
        <_>
          <depth>4</depth>
          <value>-8.4023033332196698e-02</value>
          <splits>
            <_><var>6</var>
              <quality>5.4248352535068989e-03</quality>
              <le>2.5000000000000000e+00</le></_></splits></_>
        <_>
          <depth>5</depth>
          <value>-1.8283624817793268e-01</value>
          <splits>
            <_><var>1</var>
              <quality>1.2532577849924564e-02</quality>
              <le>1.4960350096225739e-01</le></_></splits></_>
        <_>
          <depth>6</depth>
          <value>-6.5068499981064443e-01</value>
          <splits>
            <_><var>5</var>
              <quality>1.2231824919581413e-02</quality>
              <le>1.0434224605560303e+00</le></_></splits></_>
        <_>
          <depth>7</depth>
          <value>-9.8682501531567435e-01</value>
          <splits>
            <_><var>2</var>
              <quality>5.4237376898527145e-03</quality>
              <le>-1.5000000000000000e+00</le></_></splits></_>
        <_>
          <depth>8</depth>
          <value>1.</value></_>
        <_>
          <depth>8</depth>
          <value>-1.</value></_>
        <_>
          <depth>7</depth>
          <value>-5.6650068730074243e-01</value>
          <splits>
            <_><var>4</var>
              <quality>9.2036249116063118e-03</quality>
              <le>1.6722398996353149e-01</le></_></splits></_>
        <_>
          <depth>8</depth>
          <value>-6.7503826104540487e-01</value></_>
        <_>
          <depth>8</depth>
          <value>3.9224194090433567e-01</value></_>
        <_>
          <depth>6</depth>
          <value>-8.8932067956190353e-02</value>
          <splits>
            <_><var>0</var>
              <quality>3.3809752203524113e-03</quality>
              <le>2.3875000476837158e+00</le></_></splits></_>
        <_>
          <depth>7</depth>
          <value>-5.9401186862782472e-02</value>
          <splits>
            <_><var>1</var>
              <quality>2.2902241908013821e-03</quality>
              <le>2.1658000349998474e-01</le></_></splits></_>
        <_>
          <depth>8</depth>
          <value>6.3128190257567161e-03</value></_>
        <_>
          <depth>8</depth>
          <value>-2.7715494722009598e-01</value></_>
        <_>
          <depth>7</depth>
          <value>-6.6969408607102243e-01</value>
          <splits>
            <_><var>5</var>
              <quality>3.3805752173066139e-03</quality>
              <le>1.5089864730834961e+00</le></_></splits></_>
        <_>
          <depth>8</depth>
          <value>-7.4484718839753272e-01</value></_>
        <_>
          <depth>8</depth>
          <value>2.5283800708845572e-01</value></_>
        <_>
          <depth>5</depth>
          <value>-6.7208445503612931e-03</value>
          <splits>
            <_><var>3</var>
              <quality>2.3299704771488905e-03</quality>
              <le>5.</le></_></splits></_>
        <_>
          <depth>6</depth>
          <value>2.4166130776499154e-02</value>
          <splits>
            <_><var>4</var>
              <quality>9.1270194388926029e-04</quality>
              <le>3.3059999346733093e-02</le></_></splits></_>
        <_>
          <depth>7</depth>
          <value>9.8061857350424404e-03</value>
          <splits>
            <_><var>1</var>
              <quality>5.7941814884543419e-04</quality>
              <le>1.4654850959777832e-01</le></_></splits></_>
        <_>
          <depth>8</depth>
          <value>-5.2749608997630711e-02</value></_>
        <_>
          <depth>8</depth>
          <value>5.9189464048053343e-02</value></_>
        <_>
          <depth>7</depth>
          <value>3.1655718354264484e-01</value>
          <splits>
            <_><var>5</var>
              <quality>2.3286114446818829e-03</quality>
              <le>1.2035953998565674e+00</le></_></splits></_>
        <_>
          <depth>8</depth>
          <value>-1.</value></_>
        <_>
          <depth>8</depth>
          <value>4.3843013317201918e-01</value></_>
        <_>
          <depth>6</depth>
          <value>-3.6954176739186867e-01</value>
          <splits>
            <_><var>0</var>
              <quality>4.8878681845963001e-03</quality>
              <le>1.6255434751510620e+00</le></_></splits></_>
        <_>
          <depth>7</depth>
          <value>-5.7840126114171009e-01</value>
          <splits>
            <_><var>4</var>
              <quality>6.4787208102643490e-03</quality>
              <le>6.3439998775720596e-03</le></_></splits></_>
        <_>
          <depth>8</depth>
          <value>-7.3927913504186527e-01</value></_>
        <_>
          <depth>8</depth>
          <value>4.7907338219256024e-01</value></_>
        <_>
          <depth>7</depth>
          <value>4.1716603439011896e-01</value>
          <splits>
            <_><var>5</var>
              <quality>1.4069877797737718e-03</quality>
              <le>3.0872936248779297e+00</le></_></splits></_>
        <_>
          <depth>8</depth>
          <value>6.3687438566963994e-01</value></_>
        <_>
          <depth>8</depth>
          <value>-6.6973429355579606e-01</value></_>
        <_>
          <depth>4</depth>
          <value>2.8566990271048515e-01</value>
          <splits>
            <_><var>1</var>
              <quality>3.3407344017177820e-03</quality>
              <le>1.0122349858283997e-01</le></_></splits></_>
        <_>
          <depth>5</depth>
          <value>4.9810987338948864e-01</value>
          <splits>
            <_><var>0</var>
              <quality>4.1659893468022346e-03</quality>
              <le>9.9227750301361084e-01</le></_></splits></_>
        <_>
          <depth>6</depth>
          <value>-1.</value></_>
        <_>
          <depth>6</depth>
          <value>5.4070980859363582e-01</value>
          <splits>
            <_><var>4</var>
              <quality>4.3783062137663364e-03</quality>
              <le>6.9844853878021240e-01</le></_></splits></_>
        <_>
          <depth>7</depth>
          <value>6.4391558006668648e-01</value>
          <splits>
            <_><var>0</var>
              <quality>4.8068896867334843e-03</quality>
              <le>3.8169646263122559e+00</le></_></splits></_>
        <_>
          <depth>8</depth>
          <value>6.7614882234796558e-01</value></_>
        <_>
          <depth>8</depth>
          <value>-7.0759612273936712e-01</value></_>
        <_>
          <depth>7</depth>
          <value>1.0676803496219198e-01</value>
          <splits>
            <_><var>1</var>
              <quality>8.4863178199157119e-04</quality>
              <le>7.9813495278358459e-02</le></_></splits></_>
        <_>
          <depth>8</depth>
          <value>6.2938054752276018e-01</value></_>
        <_>
          <depth>8</depth>
          <value>-5.2222214088731467e-01</value></_>
        <_>
          <depth>5</depth>
          <value>-5.7205489649225283e-02</value>
          <splits>
            <_><var>2</var>
              <quality>5.9778842842206359e-04</quality>
              <le>7.5000000000000000e+00</le></_></splits></_>
        <_>
          <depth>6</depth>
          <value>-1.3185259187389037e-01</value>
          <splits>
            <_><var>5</var>
              <quality>5.7709810789674520e-04</quality>
              <le>1.7313435077667236e+00</le></_></splits></_>
        <_>
          <depth>7</depth>
          <value>-6.5053818068367825e-02</value>
          <splits>
            <_><var>0</var>
              <quality>7.5520493555814028e-04</quality>
              <le>1.4084320068359375e+00</le></_></splits></_>
        <_>
          <depth>8</depth>
          <value>-3.4406193686326703e-01</value></_>
        <_>
          <depth>8</depth>
          <value>3.0051615938356097e-01</value></_>
        <_>
          <depth>7</depth>
          <value>-1.</value></_>
        <_>
          <depth>6</depth>
          <value>8.6673743271392756e-01</value></_>
        <_>
          <depth>1</depth>
          <value>2.5560915960773228e-01</value>
          <splits>
            <_><var>1</var>
              <quality>1.7473684623837471e-02</quality>
              <le>9.4925001263618469e-02</le></_></splits></_>
        <_>
          <depth>2</depth>
          <value>5.2248429319195133e-01</value>
          <splits>
            <_><var>0</var>
              <quality>2.0333565771579742e-02</quality>
              <le>5.7603704929351807e-01</le></_></splits></_>
        <_>
          <depth>3</depth>
          <value>-3.8987895777807105e-02</value>
          <splits>
            <_><var>1</var>
              <quality>1.2507585342973471e-03</quality>
              <le>7.3080003261566162e-02</le></_></splits></_>
        <_>
          <depth>4</depth>
          <value>6.2208210483449933e-01</value>
          <splits>
            <_><var>4</var>
              <quality>1.0312724625691772e-03</quality>
              <le>4.0858998894691467e-02</le></_></splits></_>
        <_>
          <depth>5</depth>
          <value>3.5439638897491105e-01</value>
          <splits>
            <_><var>0</var>
              <quality>3.8845039671286941e-04</quality>
              <le>5.6512099504470825e-01</le></_></splits></_>
        <_>
          <depth>6</depth>
          <value>4.9358337258244811e-01</value>
          <splits>
            <_><var>4</var>
              <quality>6.4883549930527806e-04</quality>
              <le>1.4458999969065189e-02</le></_></splits></_>
        <_>
          <depth>7</depth>
          <value>1.</value></_>
        <_>
          <depth>7</depth>
          <value>-1.6784634092950190e-01</value></_>
        <_>
          <depth>6</depth>
          <value>-1.</value></_>
        <_>
          <depth>5</depth>
          <value>1.</value></_>
        <_>
          <depth>4</depth>
          <value>-2.6445874341822190e-01</value>
          <splits>
            <_><var>6</var>
              <quality>1.0217797243967652e-03</quality>
              <le>1.1500000000000000e+01</le></_></splits></_>
        <_>
          <depth>5</depth>
          <value>-7.8886889013466144e-01</value>
          <splits>
            <_><var>4</var>
              <quality>1.1098796967417002e-03</quality>
              <le>1.5818250179290771e-01</le></_></splits></_>
        <_>
          <depth>6</depth>
          <value>-8.3104660797880836e-01</value>
          <splits>
            <_><var>1</var>
